elements: [H, O]
E0: [0, 0]
deltaSplineBins: 0.001
embeddings:
  0: {ndensity: 6, FS_parameters: [1, 1, 1, 0.5, 1, 0.75, 1, 0.25, 1, 0.375, 1, 0.625], npoti: FinnisSinclairShiftedScaled, rho_core_cutoff: 100000, drho_core_cutoff: 250}
  1: {ndensity: 6, FS_parameters: [1, 1, 1, 0.5, 1, 0.75, 1, 0.25, 1, 0.375, 1, 0.625], npoti: FinnisSinclairShiftedScaled, rho_core_cutoff: 100000, drho_core_cutoff: 250}
bonds:
  [0, 0]: {nradmax: 8, lmax: 5, nradbasemax: 13, radbasename: SBessel, radparameters: [5.25], radcoefficients: [[[0.53496839074830516, -0.31490576191494613, 0.084271287522030905, -0.0085627278657816434, 0.0018958379503727749, -0.010508724079885942, 0.0039968521695303797, -0.0035281133349405296, -0.00076155338336074884, -0.0014965373198839848, 0.0031348207594102577, -0.0039842690016923957, 0.0010433759443807817], [0.70328878278624474, -0.33079543074621026, 0.066417816937400689, -0.012347559593413217, 0.00065274598589695699, 0.048251670142494707, -0.073854764904688952, 0.065275233866731494, -0.039247160205714129, 0.021776840658427291, -0.011852672753696931, 0.0077601742277021149, -0.0029340918622274659], [0.56199905188422228, -0.20455812757037728, 0.034358311551481141, 0.060015720336618818, -0.072722183607142027, 0.06096226137129148, -0.02141138026372515, 0.011937710596148137, -0.0063502721810591847, 0.0061409553503377545, 0.0029531898813570214, -0.0055698341859982334, 0.0075999518305696501], [0.52820627404602993, 0.155283445727186, -0.071726358986303251, -0.15201106198393083, 0.040794171554007844, 0.09071214648303097, -0.06613793738524934, 0.0046012311711567735, 0.031372477245996087, -0.019275866669670058, 0.016519979980008474, -0.010404508362364989, 0.0091944972889742051], [0.65279100361556275, -0.1091332408669122, -0.050705137385205434, 0.13443521141781661, -0.025579327451665568, 0.032193451144156324, -0.010663410881743246, 0.033938959722539602, -0.026212855931390146, 0.0013776615447327798, 0.013603456378343239, -0.0098475831049193857, 0.018430848505981964], [0.49644499172863982, -0.15951895194388208, -0.092110030407047905, 0.048173936650011268, 0.099812667814698608, -0.12972491947221737, 0.091586510532980697, -0.055807966679749139, 0.071710082208828865, -0.08748206507844089, 0.068455118507236401, -0.034996813386040299, 0.0081229334378982252]], [[-0.32272762379033487, 0.58331510070425685, -0.17086552241002945, 0.060911900234758024, 0.04072516543742298, -0.011073118930778487, 0.039559722624316347, -0.020980103858607452, 0.027482547296901305, -0.01123602022115449, 0.0090425057112493452, 0.00016420619657463409, 0.0032904230155230562], [0.10195309351204293, 0.2547307613486896, -0.18703991268636658, -0.033686651839719417, 0.14412207551639136, -0.019179973888668805, -0.051394508212674349, 0.052561224446825712, 0.00046701011371680525, -0.00790539526201464, 0.0039434673190998056, 0.009998967468484124, -0.0033250428299546322], [0.20430917520995232, 0.13811121723288261, -0.30467402988868425, 0.11467810526045055, 0.02002134929999393, -0.0034604814815467678, -0.044651035844717288, 0.054615570373225127, -0.04147742213081939, 0.038930700206863997, -0.049865254842017759, 0.038495949606911432, -0.020273698038872939], [-0.076153069047039099, 0.23585637115143579, -0.036267100679600185, -0.01898689224585735, -0.10918186256147205, 0.14254474443335519, -0.037677297119381316, -0.065158868722829777, 0.095649512165265529, -0.073659916138354861, 0.053492486162731299, -0.030565715508098314, 0.01881485358718922], [0.095932560529151889, 0.28336408200468821, 0.019420780165114067, -0.062434990790455884, 0.051021093243948087, 0.055098314097753821, -0.013032444215732814, -0.0014660067331774527, 0.015971681113597928, -0.011083197247736577, -0.0036455720873743353, 0.0024509942297317134, 0.015191220635125303], [-0.00019276833592052998, 0.98302645497731367, -0.00054272408924319255, 0.00051698147335096239, 0.00083386123799968504, 0.0012033460717869764, -0.0013590854905146874, -0.0010794596421926791, -0.001790103731871307, -0.0007000210453306225, 0.0022430278212860733, 0.0017391330200075576, 0.0012387673943618567]], [[-0.089725254689985809, -0.18719994764911546, 0.52079771328857749, -0.31104895460989146, 0.15695618994860777, -0.02527829836837691, 0.022638682443115964, 0.0059804398735716635, 0.0013981046232906648, 0.0097664285933507667, -0.0027202546051840683, 0.0076063791477716221, 0.0013523658733483651], [-0.25094341429328743, -0.036622705654835143, 0.27059054945042277, -0.28580243978783959, 0.13696781156395141, -0.016981247890922039, -0.036049630267665909, -0.0013920221195870797, 0.036358101695874417, -0.064416617553408828, 0.06567753179715119, -0.053463265437459821, 0.033634145359222906], [0.059166668716558075, 0.11758261919249569, 0.13161944046136176, -0.22706377224733931, 0.066972739692359118, 0.032973600251563796, 0.033712033725188127, -0.13390916809566064, 0.1586508384513392, -0.10331176093704292, 0.054339051832948161, -0.028669635270551531, 0.016326286976823152], [-0.18598367871347907, -0.11552697656654794, 0.41625068020751682, -0.24225966068630292, 0.056247659794433212, 0.075221947965878388, -0.043514025331782891, 0.0014293493411404372, 0.037370324830299548, -0.049089682444295825, 0.030236042374166331, -0.018430945563235736, 0.002590924710122346], [-0.08567763756422471, 0.27440135928887277, 0.26244515698265392, 0.041440110120981789, 0.12077954041329365, -0.048419049347958709, 0.085786976266152615, -0.0382177549150092, 0.06273761699087517, -0.032342103947276157, 0.024782122757575097, -0.0053329838689605297, 0.022389927808806984], [0.00010354607337568778, -0.00038269239811419077, 0.98199998004203837, -0.0009946366273451059, 0.00079661023811985988, 0.00071201959764137729, 0.00077216646908103727, 0.001430682739923054, 0.0032511210118278695, -0.00089250225607218905, -0.0026121032830328851, -0.003069906899292831, -0.00094595402692595912]], [[-0.13980003373999145, 0.072176806896683099, -0.052545562801173326, 0.29869795740763727, -0.21257053584050384, 0.12530536629971509, -0.0085172951841424021, -0.021640620447114012, 0.063881326397107113, -0.073960780717621619, 0.086357401936078049, -0.054402929247429399, 0.034406832909497871], [-0.32995048515222997, -0.12028298880599589, -0.052840678231479067, 0.1071720582656427, -0.03838386038891356, 0.03447801089985781, -0.095238883931304447, 0.077117287660439099, -0.056402734043508658, 0.031021953248875092, -0.038421926943841542, 0.035954211487449296, -0.024649657353683564], [-0.32023489235401281, -0.32914709357084337, 0.057913953489327263, 0.22145026288972949, -0.2003565441787524, 0.019528494100720478, 0.037864383936565292, 0.013793488832134862, -0.070011493010257025, 0.090693141381687964, -0.084126737254593187, 0.055112377382496663, -0.021514694223180458], [0.30567269248279988, -0.63577433407051687, 0.013756571682737979, 0.44831325942896405, -0.33173583354982839, 0.076328818213129215, 0.10534344207679275, -0.10868494690759802, 0.11539244451780407, -0.11910121174251356, 0.13563077974198764, -0.092942050484948718, 0.060832444606694527], [2.545892617853453e-05, 0.0002606123869051684, -0.00067408966549867928, 0.98068113624350428, -0.001475726693674326, 0.0010281322624199373, 0.00069497415200313838, 0.00098287788001856719, 0.0013039768738345608, 0.0012201223835635086, 0.0023467407027820191, 0.005773793993961481, -0.00050520959737228657], [2.545892617853453e-05, 0.0002606123869051684, -0.00067408966549867928, 0.98068113624350428, -0.001475726693674326, 0.0010281322624199373, 0.00069497415200313838, 0.00098287788001856719, 0.0013039768738345608, 0.0012201223835635086, 0.0023467407027820191, 0.005773793993961481, -0.00050520959737228657]], [[-0.024921929838618271, -0.16522945108972442, 0.059949533849909545, -0.035302877470889983, 0.36241102906402922, -0.20363156507944075, 0.17928153223847826, -0.025229662180962717, 0.025822325928927473, -0.017824068585799845, 0.051496200591279608, -0.015972526090250308, 0.010625289874576794], [0.19298903003882659, -0.22326213944027148, -0.11066585181397866, -0.010187651700593939, 0.19381050498257971, -0.16885304931542461, -0.084274747890433946, 0.19294715762716957, -0.17858847136449965, 0.065218060076605591, 0.0062753412485621139, -0.029297665822098563, 0.018682092156288799], [0.07134986924628707, -0.10553558470615321, -0.047231762371767461, 0.06222848055387635, 0.22328565912185394, -0.32791675308144624, 0.31363794471262546, -0.21609526995399464, 0.14767420698767569, -0.11922881839214491, 0.085595738529229443, -0.045438504696875277, 0.01492496999978647], [0.0051246311405550487, 0.2185175093222248, 0.10371711909061217, -0.066880874873279011, 0.11548622888042015, -0.089504727105697651, 0.14853056342632881, -0.082957217424774757, 0.070703967355902883, -0.084689620075488997, 0.10002941878314547, -0.084754126930720139, 0.06201645589295144], [2.6465289456289339e-05, 7.4177527196045708e-05, 0.00046086626780994776, -0.0010825655481342092, 0.97906664068854643, -0.0020771730707572255, 0.0012211594902357948, 0.00073289627986263092, 0.0013797107380170979, 0.0012615549951167343, 0.001251448603408983, 0.0015740471617744568, 0.0018115591379029542], [2.6465289456289339e-05, 7.4177527196045708e-05, 0.00046086626780994776, -0.0010825655481342092, 0.97906664068854643, -0.0020771730707572255, 0.0012211594902357948, 0.00073289627986263092, 0.0013797107380170979, 0.0012615549951167343, 0.001251448603408983, 0.0015740471617744568, 0.0018115591379029542]], [[-0.11763211432888931, 0.0015010889034871044, -0.1426998039958261, 0.12792611293720962, -0.046411880716279386, 0.34382337786681383, -0.18334743077585236, 0.19800635262405253, -0.12996807251748793, 0.15257437823183173, -0.078460067096467356, 0.061536643559128738, -0.029600079688723854], [0.34273425810767622, 0.094625826345715133, -0.055931904376759309, 0.13662519731951298, -0.19247700098090309, 0.37321650358319985, -0.42789888837831458, 0.40184307488727938, -0.30192897115791323, 0.23474682370861197, -0.15327822669274963, 0.082474285507432091, -0.026689744646461889], [-0.0096754642696466886, 0.20147157769307442, 0.076491976120165631, 0.20219584034332053, 0.0070036571446363957, -0.0251627540425019, 0.047092315343652366, 0.0046712532750829939, -0.01159452275101897, -0.0052193078776212555, 0.051809118835418812, -0.06325687630854919, 0.046499762357264385], [3.271018890175374e-05, 0.00010432633431229511, 0.00011348127665469967, 0.0006671621527709001, -0.0013572700658740879, 0.97715872461754261, -0.0032259011635199964, 0.0014152532824768522, 0.00087657392786348739, 0.001430641382158139, 0.0014640172174817429, 0.0014816626118371444, 0.0020770298951350531], [3.271018890175374e-05, 0.00010432633431229511, 0.00011348127665469967, 0.0006671621527709001, -0.0013572700658740879, 0.97715872461754261, -0.0032259011635199964, 0.0014152532824768522, 0.00087657392786348739, 0.001430641382158139, 0.0014640172174817429, 0.0014816626118371444, 0.0020770298951350531], [3.271018890175374e-05, 0.00010432633431229511, 0.00011348127665469967, 0.0006671621527709001, -0.0013572700658740879, 0.97715872461754261, -0.0032259011635199964, 0.0014152532824768522, 0.00087657392786348739, 0.001430641382158139, 0.0014640172174817429, 0.0014816626118371444, 0.0020770298951350531]], [[-0.03009405917808165, 0.11785612958975955, -0.077180928215966227, 0.092110181842132724, 0.036479754619504985, -0.15471680551846237, 0.44651638603390464, -0.49064460275868665, 0.37444041026422886, -0.15814117828087698, 0.049624364365324886, 0.0042139979316916081, -0.0080676832020799283], [0.19798737344981873, 0.12141107187445634, 0.27136272078698531, 0.029701348276457627, 0.076890931660669792, -0.0096677761387134794, 0.11623548701197178, -0.012610317341222886, 0.03849141943942861, -0.029649615124296268, 0.049999589787423949, -0.014704648526963793, 0.009410042897604845], [0.1683863435495247, -0.081230372588748503, 0.48098510100929609, -0.063490290514206085, -0.0022017847217807637, -0.13562971963933526, 0.27117803603909035, -0.1369749116923146, 0.046793431157219137, -0.016128754405359446, 0.07719709206136581, -0.068011818953161524, 0.046525919529541278], [2.2866902452581784e-05, 3.8689389620985128e-05, 0.00015687640983518062, 0.00021258260272889875, 0.00093803228619679033, -0.0022366425467149967, 0.97493960976442817, -0.0035554568981341992, 0.0018126558763565282, 0.0010025282065832767, 0.0019125453336552778, 0.0014528259396801052, 0.0015823742327688867], [2.2866902452581784e-05, 3.8689389620985128e-05, 0.00015687640983518062, 0.00021258260272889875, 0.00093803228619679033, -0.0022366425467149967, 0.97493960976442817, -0.0035554568981341992, 0.0018126558763565282, 0.0010025282065832767, 0.0019125453336552778, 0.0014528259396801052, 0.0015823742327688867], [2.2866902452581784e-05, 3.8689389620985128e-05, 0.00015687640983518062, 0.00021258260272889875, 0.00093803228619679033, -0.0022366425467149967, 0.97493960976442817, -0.0035554568981341992, 0.0018126558763565282, 0.0010025282065832767, 0.0019125453336552778, 0.0014528259396801052, 0.0015823742327688867]], [[-0.033673816788058239, -0.059135891467180034, 0.062754716418327194, 0.095832086513530201, -0.13057451261883601, 0.11702069159722922, -0.044337304415649953, 0.070314143986861102, -0.12545478860046494, 0.16602600304304233, -0.13646496251364712, 0.085483195149430466, -0.03635693709331398], [-0.046528326257745049, 0.065550889951619035, -0.018228392593111084, 0.024776260478377173, -0.08355929238562175, 0.072301982985565921, 0.090459121878219931, 0.10488457100608677, -0.069405378446691979, 0.029839291884419743, 0.013888859080952573, 0.040800989781004993, -0.040070256219509791], [7.6532010285063035e-06, 7.1242481520600933e-05, 8.1702044220354305e-05, 0.00030720024571916278, 0.00037875864700924022, 0.0012917982738721969, -0.0029386347008375805, 0.97243386209193927, -0.0046101934122885144, 0.0017003766122992365, 0.00062460191239589204, 0.0016162414571655737, 0.0010123114709359809], [7.6532010285063035e-06, 7.1242481520600933e-05, 8.1702044220354305e-05, 0.00030720024571916278, 0.00037875864700924022, 0.0012917982738721969, -0.0029386347008375805, 0.97243386209193927, -0.0046101934122885144, 0.0017003766122992365, 0.00062460191239589204, 0.0016162414571655737, 0.0010123114709359809], [7.6532010285063035e-06, 7.1242481520600933e-05, 8.1702044220354305e-05, 0.00030720024571916278, 0.00037875864700924022, 0.0012917982738721969, -0.0029386347008375805, 0.97243386209193927, -0.0046101934122885144, 0.0017003766122992365, 0.00062460191239589204, 0.0016162414571655737, 0.0010123114709359809], [7.6532010285063035e-06, 7.1242481520600933e-05, 8.1702044220354305e-05, 0.00030720024571916278, 0.00037875864700924022, 0.0012917982738721969, -0.0029386347008375805, 0.97243386209193927, -0.0046101934122885144, 0.0017003766122992365, 0.00062460191239589204, 0.0016162414571655737, 0.0010123114709359809]]], prehc: 0, lambdahc: 0, rcut: 5.5, dcut: 0.01, rcut_in: 0, dcut_in: 0, inner_cutoff_type: distance}
  [0, 1]: {nradmax: 8, lmax: 3, nradbasemax: 10, radbasename: SBessel, radparameters: [5.25], radcoefficients: [[[0.69480681084277107, -0.27568223793584012, 0.016802710001386313, 0.016340319300298386, -0.022818799650532483, -0.0065923131167826936, 0.011649994794319338, -0.020214179688381198, 0.012221761334219006, -0.010187572162718124], [0.93955624529554016, -0.27014808497010068, -0.024487425274327717, 0.064798567971546553, 0.078152079173684275, -0.19327744448067674, 0.2437615633173012, -0.21082905344160024, 0.1356234202218865, -0.056251283107418143], [1.0569507439258101, -0.44303711916863486, 0.05393236781103769, 0.084755243754201584, -0.0084851414346067897, -0.090572477319028871, 0.15271051421957935, -0.13733319093529317, 0.086820468764372008, -0.030164927111160342], [0.61202017921312557, -0.51944897301408299, 0.30561688372251633, -0.0021667844050309755, -0.17655002820264284, 0.21923795625861203, -0.16953316640774707, 0.10305799335111938, -0.039858303590096122, 0.00074033143865969916]], [[-0.29662190926286192, 0.77171806290642619, -0.19242754124406874, 0.01421308687463849, 0.19564356212713069, -0.15996776772515217, 0.15539642741194853, -0.066333028114090406, 0.038216372279492677, 0.004084871596539013], [-0.23602651701375826, 0.61734511822181681, -0.38958108069698322, 0.28565233451306499, -0.042782720722089052, -0.12367569241100199, 0.20749353004876694, -0.17383018077542955, 0.1166099495251687, -0.043867516033298158], [-0.17662279460238578, 0.46627847601566563, -0.36949526472135119, 0.15604556025333877, 0.083625276627138062, -0.28113456317850494, 0.35194428873891681, -0.29249080925422111, 0.16588274836394845, -0.054315211799015925], [0.4965473446701702, 0.065857051562726282, -0.51352899851049527, 0.27328634149628689, 0.052425645874464855, -0.3163964112060319, 0.38252834222283622, -0.30545206582701012, 0.1579574745055739, -0.05183695395728561]], [[-0.11776577076380233, -0.10420871231585532, 0.60658878713540432, -0.1082214279012996, -0.090738893476219301, 0.24658736126803657, -0.21147688021203581, 0.17554631427071543, -0.076263650012609166, 0.038012001520594578], [-0.4646115225092633, 0.12073132630970611, 0.77748494625965758, -0.40283424973362869, 0.090510725660005176, -0.00031326414138976269, 0.080231279270337408, -0.11044483818530269, 0.11885783200348524, -0.062418618125629557], [-0.26553352907505201, 0.013214420497396418, 0.81985109353553876, -0.12950158321545804, -0.46278955538165173, 0.43689337260686245, -0.1423713216015739, -0.060440549565385866, 0.079843229715036698, -0.029094155624243247], [0.00020527803975876283, -0.00077131947805474717, 0.97937400327793378, -0.0019688133807236074, 0.0016076983131072583, 0.001513795306868484, 0.0015250671665227825, 0.0029146642110812731, 0.0063687093861284705, -0.0019363939009327256]], [[0.045137359509839756, -0.17038933658932157, 0.024021621930901467, 0.48457196034373989, -0.15050109830101233, -0.053802216782688018, 0.23261788256626675, -0.16381704849686757, 0.10374133023751718, -0.0099728683122803485], [0.42985461330117974, -0.21463071428181923, -0.091993644117841153, 0.96312812453024343, -0.76883787440356743, 0.44154239283366581, -0.18397551517631935, 0.10675634875516635, -0.001591086339695626, -0.019344104447980012], [0.24954202819989932, 0.15636679340433465, -0.37038396629206621, 0.7307038154095794, -0.71634801171836449, 0.43357698229356073, -0.13510819280461867, -0.045031675825547429, 0.080630152188657406, -0.057252636792684428], [5.2561591978323295e-05, 0.00052537976826088218, -0.0013434515562152393, 0.97673655590829933, -0.002966204316386202, 0.0020207818237068455, 0.0013353652750216136, 0.0019053851885543738, 0.0025667577479025596, 0.0024483958648271183]], [[-0.080441653494286974, -0.0074352541853129018, 0.032540618526777434, -0.055325591474177212, 0.66809058769876817, -0.37920860293829689, 0.3595560177022894, -0.05395643649910873, 0.0097090845232353715, 0.091150505799511602], [-0.2300198195419049, -0.0047988342749558342, 0.026649970281083353, -0.02393508589881763, 0.71780510992402502, -0.84316259793418014, 0.54491930357165397, -0.10002168907185395, -0.045160308533105924, 0.062581823571071352], [5.2930533028656034e-05, 0.00014835469393681137, 0.00092171862165344972, -0.0021650543246711355, 0.97350940408024489, -0.0041540635082682274, 0.0024422212938799391, 0.0014657573727264893, 0.0027592967767414221, 0.0025230057340137162], [5.2930533028656034e-05, 0.00014835469393681137, 0.00092171862165344972, -0.0021650543246711355, 0.97350940408024489, -0.0041540635082682274, 0.0024422212938799391, 0.0014657573727264893, 0.0027592967767414221, 0.0025230057340137162]], [[0.016435790727819512, -0.055331034565919396, -0.068695981858398134, 0.09799716655338693, -0.2687204877471896, 0.79479750873553912, -0.54315994040704729, 0.37596282783468288, -0.12923434788666374, 0.091634851395596115], [0.47811973684823017, 0.28325229043171574, -0.240455543777882, 0.24395734765841498, -0.052487475753295328, 0.26499496120513943, -0.56152452487875459, 0.69174212887476072, -0.49005908723199815, 0.20937588855680489], [6.4852927072711156e-05, 0.00021060497542545954, 0.0002305433554091346, 0.0013300469939944884, -0.0027267312794566775, 0.96969543418533677, -0.0064282039155897797, 0.0028444265284607883, 0.0017251875382456926, 0.0028233871755723203], [6.4852927072711156e-05, 0.00021060497542545954, 0.0002305433554091346, 0.0013300469939944884, -0.0027267312794566775, 0.96969543418533677, -0.0064282039155897797, 0.0028444265284607883, 0.0017251875382456926, 0.0028233871755723203]], [[0.027856511327423925, -0.078399186352445138, 0.2116086394339641, -0.11893958961353319, 0.19900833206713131, -0.1492090005406716, 0.42822445514128415, -0.37575632519655633, 0.25147538096313932, -0.057763560532865715], [3.947030931587972e-05, 5.6633652156916941e-05, 0.00027152680197515541, 0.00036131240478739178, 0.0018019774134098762, -0.0045314541734703465, 0.96525593749250593, -0.0070098375634780347, 0.0038792414231624633, 0.002453354438400026], [3.947030931587972e-05, 5.6633652156916941e-05, 0.00027152680197515541, 0.00036131240478739178, 0.0018019774134098762, -0.0045314541734703465, 0.96525593749250593, -0.0070098375634780347, 0.0038792414231624633, 0.002453354438400026], [3.947030931587972e-05, 5.6633652156916941e-05, 0.00027152680197515541, 0.00036131240478739178, 0.0018019774134098762, -0.0045314541734703465, 0.96525593749250593, -0.0070098375634780347, 0.0038792414231624633, 0.002453354438400026]], [[0.10986688683311033, -0.032757487166846677, -0.089500473364165833, 0.2196729154187553, -0.25700466010492212, 0.19349438517752948, -0.12085001557338775, 0.23465029453221783, -0.20719346182459883, 0.1216045866379362], [1.5350332194292118e-05, 0.00014242447444947547, 0.00016311849382761676, 0.00061561687799182956, 0.00075497887045555725, 0.0025868864643213375, -0.0058794704995286618, 0.9602515586368161, -0.0092146025303979535, 0.0033919770885906695], [1.5350332194292118e-05, 0.00014242447444947547, 0.00016311849382761676, 0.00061561687799182956, 0.00075497887045555725, 0.0025868864643213375, -0.0058794704995286618, 0.9602515586368161, -0.0092146025303979535, 0.0033919770885906695], [1.5350332194292118e-05, 0.00014242447444947547, 0.00016311849382761676, 0.00061561687799182956, 0.00075497887045555725, 0.0025868864643213375, -0.0058794704995286618, 0.9602515586368161, -0.0092146025303979535, 0.0033919770885906695]]], prehc: 0, lambdahc: 0, rcut: 5.5, dcut: 0.01, rcut_in: 0, dcut_in: 0, inner_cutoff_type: distance}
  [1, 0]: {nradmax: 8, lmax: 3, nradbasemax: 10, radbasename: SBessel, radparameters: [5.25], radcoefficients: [[[0.69480681084277107, -0.27568223793584012, 0.016802710001386313, 0.016340319300298386, -0.022818799650532483, -0.0065923131167826936, 0.011649994794319338, -0.020214179688381198, 0.012221761334219006, -0.010187572162718124], [0.93955624529554016, -0.27014808497010068, -0.024487425274327717, 0.064798567971546553, 0.078152079173684275, -0.19327744448067674, 0.2437615633173012, -0.21082905344160024, 0.1356234202218865, -0.056251283107418143], [1.0569507439258101, -0.44303711916863486, 0.05393236781103769, 0.084755243754201584, -0.0084851414346067897, -0.090572477319028871, 0.15271051421957935, -0.13733319093529317, 0.086820468764372008, -0.030164927111160342], [0.61202017921312557, -0.51944897301408299, 0.30561688372251633, -0.0021667844050309755, -0.17655002820264284, 0.21923795625861203, -0.16953316640774707, 0.10305799335111938, -0.039858303590096122, 0.00074033143865969916]], [[-0.29662190926286192, 0.77171806290642619, -0.19242754124406874, 0.01421308687463849, 0.19564356212713069, -0.15996776772515217, 0.15539642741194853, -0.066333028114090406, 0.038216372279492677, 0.004084871596539013], [-0.23602651701375826, 0.61734511822181681, -0.38958108069698322, 0.28565233451306499, -0.042782720722089052, -0.12367569241100199, 0.20749353004876694, -0.17383018077542955, 0.1166099495251687, -0.043867516033298158], [-0.17662279460238578, 0.46627847601566563, -0.36949526472135119, 0.15604556025333877, 0.083625276627138062, -0.28113456317850494, 0.35194428873891681, -0.29249080925422111, 0.16588274836394845, -0.054315211799015925], [0.4965473446701702, 0.065857051562726282, -0.51352899851049527, 0.27328634149628689, 0.052425645874464855, -0.3163964112060319, 0.38252834222283622, -0.30545206582701012, 0.1579574745055739, -0.05183695395728561]], [[-0.11776577076380233, -0.10420871231585532, 0.60658878713540432, -0.1082214279012996, -0.090738893476219301, 0.24658736126803657, -0.21147688021203581, 0.17554631427071543, -0.076263650012609166, 0.038012001520594578], [-0.4646115225092633, 0.12073132630970611, 0.77748494625965758, -0.40283424973362869, 0.090510725660005176, -0.00031326414138976269, 0.080231279270337408, -0.11044483818530269, 0.11885783200348524, -0.062418618125629557], [-0.26553352907505201, 0.013214420497396418, 0.81985109353553876, -0.12950158321545804, -0.46278955538165173, 0.43689337260686245, -0.1423713216015739, -0.060440549565385866, 0.079843229715036698, -0.029094155624243247], [0.00020527803975876283, -0.00077131947805474717, 0.97937400327793378, -0.0019688133807236074, 0.0016076983131072583, 0.001513795306868484, 0.0015250671665227825, 0.0029146642110812731, 0.0063687093861284705, -0.0019363939009327256]], [[0.045137359509839756, -0.17038933658932157, 0.024021621930901467, 0.48457196034373989, -0.15050109830101233, -0.053802216782688018, 0.23261788256626675, -0.16381704849686757, 0.10374133023751718, -0.0099728683122803485], [0.42985461330117974, -0.21463071428181923, -0.091993644117841153, 0.96312812453024343, -0.76883787440356743, 0.44154239283366581, -0.18397551517631935, 0.10675634875516635, -0.001591086339695626, -0.019344104447980012], [0.24954202819989932, 0.15636679340433465, -0.37038396629206621, 0.7307038154095794, -0.71634801171836449, 0.43357698229356073, -0.13510819280461867, -0.045031675825547429, 0.080630152188657406, -0.057252636792684428], [5.2561591978323295e-05, 0.00052537976826088218, -0.0013434515562152393, 0.97673655590829933, -0.002966204316386202, 0.0020207818237068455, 0.0013353652750216136, 0.0019053851885543738, 0.0025667577479025596, 0.0024483958648271183]], [[-0.080441653494286974, -0.0074352541853129018, 0.032540618526777434, -0.055325591474177212, 0.66809058769876817, -0.37920860293829689, 0.3595560177022894, -0.05395643649910873, 0.0097090845232353715, 0.091150505799511602], [-0.2300198195419049, -0.0047988342749558342, 0.026649970281083353, -0.02393508589881763, 0.71780510992402502, -0.84316259793418014, 0.54491930357165397, -0.10002168907185395, -0.045160308533105924, 0.062581823571071352], [5.2930533028656034e-05, 0.00014835469393681137, 0.00092171862165344972, -0.0021650543246711355, 0.97350940408024489, -0.0041540635082682274, 0.0024422212938799391, 0.0014657573727264893, 0.0027592967767414221, 0.0025230057340137162], [5.2930533028656034e-05, 0.00014835469393681137, 0.00092171862165344972, -0.0021650543246711355, 0.97350940408024489, -0.0041540635082682274, 0.0024422212938799391, 0.0014657573727264893, 0.0027592967767414221, 0.0025230057340137162]], [[0.016435790727819512, -0.055331034565919396, -0.068695981858398134, 0.09799716655338693, -0.2687204877471896, 0.79479750873553912, -0.54315994040704729, 0.37596282783468288, -0.12923434788666374, 0.091634851395596115], [0.47811973684823017, 0.28325229043171574, -0.240455543777882, 0.24395734765841498, -0.052487475753295328, 0.26499496120513943, -0.56152452487875459, 0.69174212887476072, -0.49005908723199815, 0.20937588855680489], [6.4852927072711156e-05, 0.00021060497542545954, 0.0002305433554091346, 0.0013300469939944884, -0.0027267312794566775, 0.96969543418533677, -0.0064282039155897797, 0.0028444265284607883, 0.0017251875382456926, 0.0028233871755723203], [6.4852927072711156e-05, 0.00021060497542545954, 0.0002305433554091346, 0.0013300469939944884, -0.0027267312794566775, 0.96969543418533677, -0.0064282039155897797, 0.0028444265284607883, 0.0017251875382456926, 0.0028233871755723203]], [[0.027856511327423925, -0.078399186352445138, 0.2116086394339641, -0.11893958961353319, 0.19900833206713131, -0.1492090005406716, 0.42822445514128415, -0.37575632519655633, 0.25147538096313932, -0.057763560532865715], [3.947030931587972e-05, 5.6633652156916941e-05, 0.00027152680197515541, 0.00036131240478739178, 0.0018019774134098762, -0.0045314541734703465, 0.96525593749250593, -0.0070098375634780347, 0.0038792414231624633, 0.002453354438400026], [3.947030931587972e-05, 5.6633652156916941e-05, 0.00027152680197515541, 0.00036131240478739178, 0.0018019774134098762, -0.0045314541734703465, 0.96525593749250593, -0.0070098375634780347, 0.0038792414231624633, 0.002453354438400026], [3.947030931587972e-05, 5.6633652156916941e-05, 0.00027152680197515541, 0.00036131240478739178, 0.0018019774134098762, -0.0045314541734703465, 0.96525593749250593, -0.0070098375634780347, 0.0038792414231624633, 0.002453354438400026]], [[0.10986688683311033, -0.032757487166846677, -0.089500473364165833, 0.2196729154187553, -0.25700466010492212, 0.19349438517752948, -0.12085001557338775, 0.23465029453221783, -0.20719346182459883, 0.1216045866379362], [1.5350332194292118e-05, 0.00014242447444947547, 0.00016311849382761676, 0.00061561687799182956, 0.00075497887045555725, 0.0025868864643213375, -0.0058794704995286618, 0.9602515586368161, -0.0092146025303979535, 0.0033919770885906695], [1.5350332194292118e-05, 0.00014242447444947547, 0.00016311849382761676, 0.00061561687799182956, 0.00075497887045555725, 0.0025868864643213375, -0.0058794704995286618, 0.9602515586368161, -0.0092146025303979535, 0.0033919770885906695], [1.5350332194292118e-05, 0.00014242447444947547, 0.00016311849382761676, 0.00061561687799182956, 0.00075497887045555725, 0.0025868864643213375, -0.0058794704995286618, 0.9602515586368161, -0.0092146025303979535, 0.0033919770885906695]]], prehc: 0, lambdahc: 0, rcut: 5.5, dcut: 0.01, rcut_in: 0, dcut_in: 0, inner_cutoff_type: distance}
  [1, 1]: {nradmax: 8, lmax: 5, nradbasemax: 13, radbasename: SBessel, radparameters: [5.25], radcoefficients: [[[0.79002117491353696, -0.25499641103746579, -0.03651157242923405, 0.12030684001114078, -0.10543139656415219, 0.06255307739029678, -0.031036945954840477, -0.01722718724036609, 0.048994360480202941, -0.060018966064802226, 0.040528936710691868, -0.019880164130242017, 0.0020636236395186591], [1.1410856258742346, -0.068461479950763932, -0.10105295608723955, -0.037735230142210419, 0.10393934822494601, 0.014340362386225849, -0.10603058512202369, 0.13779067793352889, -0.11017714503370468, 0.069656084820298225, -0.024916300152014469, 0.0075363260223754247, 0.0010730318691800774], [1.144285609291144, -0.27761219478018551, -0.11843499943307671, 0.11625238046080513, -0.0046768752683327836, -0.019213503386877311, 0.037916991872639201, -0.044124195429404274, 0.042799050448129997, -0.035989720055851687, 0.026448290482325248, -0.012457258417919814, 0.0055587027651414827], [0.89701783193503948, 0.06632299681198156, -0.21285248608889756, -0.095620159893138296, 0.15053086064697274, -0.01299633521693541, 0.018663964738258595, -0.027210154277896321, 0.028121152385627367, -0.017465862901812658, 0.027526312986978812, -0.023841265773444364, 0.0091008548806493991], [0.86149872818233098, 0.012104063069529816, 0.2639956972049527, -0.10963531414183159, -0.030951523494296623, 0.053045475066533773, -0.014997941083963219, 0.015468437297360488, -0.064614168931938915, 0.071205261239602788, -0.069836331917858208, 0.044222788921213764, -0.019697400413824583], [0.83823399995755621, 0.088016041540630932, 0.34183461266595622, -0.086153166120592775, 0.09977681363288661, -0.023709429573660065, -0.013645015377918865, 0.092810216854449998, -0.10380564921467124, 0.095044326827523132, -0.042236094415295834, 0.027085347493350117, -0.015804058916510551]], [[-0.35704234345717284, 0.84960024725560945, -0.2924863845926256, -0.043274894695147802, 0.20403678378915013, -0.12107255135781889, 0.048038610646689628, 0.028532865327758169, -0.031517912259087913, 0.023533939397880951, 0.0059656208893294083, -0.010472931130862282, 0.011362232514871708], [-0.12227907069720938, 0.84307439854395172, -0.3912634498232323, -0.010620398760346317, 0.13410817778801096, -0.073546065457196497, 0.042172718299622679, -0.012692284382236414, 0.0036286793458839076, 0.00067318675931951003, 0.010616565059978248, -0.0058735281594170128, 0.004195563644554855], [-0.13567118205509357, 0.81646296214492287, -0.30884399799247225, -0.1315615519445891, 0.21590606722650685, -0.051396017874392422, -0.086835722663482065, 0.15463065121319736, -0.13337341161853555, 0.06138399679587158, -0.0023730164040532816, -0.013136389303942739, 0.013308009123979767], [0.11063765150303961, 0.20412256228783213, -0.14440530733362944, 0.076643464448030024, -0.25010826346197723, 0.34996048343524455, -0.14094527414539426, -0.094804022687068973, 0.21703437124262884, -0.22317947251729139, 0.1792543133225403, -0.093545230540881749, 0.027108689618090674], [-0.12386519540136182, 0.58755557477541831, -0.41346058224070115, 0.25218363286309026, 0.030721619110564567, -0.092141656848946457, -0.035479822240395503, 0.045672368553099085, 0.10691348339012807, -0.24127174011365374, 0.28199522389590237, -0.1675798608820383, 0.021113646981685292], [-0.00019276833592052998, 0.98302645497731367, -0.00054272408924319255, 0.00051698147335096239, 0.00083386123799968504, 0.0012033460717869764, -0.0013590854905146874, -0.0010794596421926791, -0.001790103731871307, -0.00070002104533062272, 0.0022430278212860733, 0.0017391330200075574, 0.001238767394361857]], [[-0.16942545297134701, -0.29831006620995587, 0.73701245785799407, -0.19465980661639209, -0.051185205013319926, 0.12272168890111713, 0.072452752649252689, -0.071075983017968122, 0.018150096662094613, 0.096698700287716655, -0.10327662265242983, 0.080096619161801094, -0.024257113958768613], [0.19072843524786848, 0.052141360145692282, 0.57795791181332479, -0.2755636738102627, 0.10418438217061629, -0.039513742839710035, 0.097449717099812191, -0.055346687151347732, 0.010911020122511996, 0.061623782800188355, -0.067545520842989815, 0.063049301053002216, -0.027756421374240416], [0.12427687036745355, -0.040020222159482775, 0.52601926139735466, -0.45028059656465713, 0.048715500581880192, 0.13313645967121127, -0.090294791566181989, -0.024938057154306609, 0.11687470170051779, -0.1730268036069528, 0.13984297000926135, -0.071945101084083363, 0.028788970456732763], [0.29042585082673272, 0.31559235105264916, 0.45456134901618189, -0.12137089975028777, 0.16147636301044291, -0.11831054116100011, 0.078070648336160522, 0.045178612617265732, -0.0096305232378475249, 0.010968919126910122, 0.029839828547465086, -0.01876487468475177, 0.02928914414880331], [0.077416230441391135, 0.092437884292366768, 0.65339884375900203, 0.17267088536737746, 0.12497321793904552, -0.16817773629139315, 0.13618444130091759, 0.016218004270850205, -0.026474139050570396, 0.026065352425059456, -0.00079212492160922162, 0.00017259041229797506, 0.019666721023291017], [0.00010354607337568778, -0.00038269239811419077, 0.98199998004203837, -0.0009946366273451059, 0.00079661023811985988, 0.00071201959764137729, 0.00077216646908103727, 0.001430682739923054, 0.0032511210118278695, -0.00089250225607218905, -0.0026121032830328851, -0.003069906899292831, -0.0009459540269259589]], [[-0.13820073492019125, -0.14082660657080084, -0.019076433746217022, 0.54630159959848767, -0.25737924720971012, 0.13582579377230752, 0.038969574514820644, 0.023631242156005747, 0.0020160930350056091, 0.032952534856642575, 0.016139592034698461, 0.0035381644318143238, 0.022316642085735947], [0.16410546810325932, 0.14665909750867276, -0.30455733642665606, 0.52197124910941739, -0.25632246406414427, 0.049677871058068965, 0.085272152247067037, -0.096059923473285777, 0.013015350457871742, 0.10264801325116188, -0.1406999275196513, 0.080691776916076846, -0.023389280694222178], [0.39525132973581234, 0.36077162313280298, -0.042230492027105382, 0.21229310167025642, -0.29064651230136807, 0.18773811529918824, 0.028033534987636832, -0.04813468467337377, -0.017331260592385347, 0.066993351192208755, -0.060551303832322816, 0.037978137526472326, -0.0040929241411288876], [0.24882335895113902, 0.13610973744935206, -0.034696871189379329, 0.6832907526887414, -0.23401931820854957, 0.13604190261681784, 0.14132910299560464, -0.10691160443224162, 0.009139535295086593, 0.058594482661095147, -0.033313354889704432, 0.09146572257627808, -0.041638186954769806], [2.545892617853453e-05, 0.0002606123869051684, -0.00067408966549867928, 0.98068113624350428, -0.001475726693674326, 0.0010281322624199373, 0.00069497415200313838, 0.00098287788001856719, 0.0013039768738345608, 0.0012201223835635086, 0.0023467407027820191, 0.005773793993961481, -0.00050520959737228733], [2.545892617853453e-05, 0.0002606123869051684, -0.00067408966549867928, 0.98068113624350428, -0.001475726693674326, 0.0010281322624199373, 0.00069497415200313838, 0.00098287788001856719, 0.0013039768738345608, 0.0012201223835635086, 0.0023467407027820191, 0.005773793993961481, -0.00050520959737228733]], [[-0.16144607167744099, 0.058986498815862633, 0.097901497522127123, -0.2535798031688215, 0.55876311163438874, -0.22317145828034657, 0.048527115600617246, 0.09390456396039816, 0.01816292860633793, -0.077983209538010023, 0.13940436868049755, -0.068620054710245862, 0.039003684880093203], [-0.38493784344906012, -0.031556672122156383, 0.071777203632009054, -0.40299912610868266, 0.61648302494298324, -0.48598202792876066, 0.11096511627327971, 0.076584446974510001, -0.1692114141481004, 0.19203883521003889, -0.1943414202538136, 0.1121795350939309, -0.046891354691067477], [-0.16436597914471873, -0.23721094810552223, 0.16608981629299702, -0.28883891204937201, 0.47206041371043184, 0.075842546032880945, 0.19098004552261308, -0.055498490021409448, -0.079918462913392371, 0.14722341468836136, -0.076457490460085334, 0.016488931113439832, 0.096279272069336758], [-0.49968776665326442, -0.40554521477954419, 0.25150751322051168, -0.16300047805606691, 0.69735351191141259, -0.057012201193072973, 0.079942934227713758, 0.16432538611394779, -0.071212000107168841, 0.11779573886345197, 0.039878689350819674, -0.074818110004084212, 0.092617841113617511], [2.6465289456289339e-05, 7.4177527196045708e-05, 0.00046086626780994776, -0.0010825655481342092, 0.97906664068854643, -0.0020771730707572255, 0.0012211594902357948, 0.00073289627986263092, 0.0013797107380170979, 0.001261554995116734, 0.0012514486034089832, 0.0015740471617744574, 0.0018115591379029537], [2.6465289456289339e-05, 7.4177527196045708e-05, 0.00046086626780994776, -0.0010825655481342092, 0.97906664068854643, -0.0020771730707572255, 0.0012211594902357948, 0.00073289627986263092, 0.0013797107380170979, 0.001261554995116734, 0.0012514486034089832, 0.0015740471617744574, 0.0018115591379029537]], [[-0.1007356362729835, -0.11215334281883049, -0.039335278242409247, 0.23154126837240774, -0.19045890692694162, 0.47856118062278702, -0.25417106085626129, 0.10588527501653319, 0.058529468846482094, -0.020437803565273176, 0.024711327210240476, 0.019766898834597889, 0.014766811161814553], [-0.22436024798308879, -0.036440388982735814, -0.29402662474707797, 0.097811745663061903, -0.061558237890742079, 0.21489537187186875, -0.24731902844889284, 0.091965851347028282, -0.029446222895780048, 0.053926101439814682, -0.092677149620496599, 0.070897660157312331, -0.048806702438115808], [-0.15860349143422531, 0.13691340368478291, -0.13286368615169361, 0.38971690882368359, 0.075504436230554084, 0.39111826051565357, 0.018505407739384042, 0.1431378069195009, -0.057783360597382899, 0.042360860141614665, 0.057624119166478228, 0.057550304414248278, -0.0046709801898439764], [3.271018890175374e-05, 0.00010432633431229511, 0.00011348127665469967, 0.0006671621527709001, -0.0013572700658740879, 0.97715872461754261, -0.0032259011635199964, 0.0014152532824768522, 0.00087657392786348739, 0.0014306413821581383, 0.0014640172174817435, 0.001481662611837144, 0.002077029895135054], [3.271018890175374e-05, 0.00010432633431229511, 0.00011348127665469967, 0.0006671621527709001, -0.0013572700658740879, 0.97715872461754261, -0.0032259011635199964, 0.0014152532824768522, 0.00087657392786348739, 0.0014306413821581383, 0.0014640172174817435, 0.001481662611837144, 0.002077029895135054], [3.271018890175374e-05, 0.00010432633431229511, 0.00011348127665469967, 0.0006671621527709001, -0.0013572700658740879, 0.97715872461754261, -0.0032259011635199964, 0.0014152532824768522, 0.00087657392786348739, 0.0014306413821581383, 0.0014640172174817435, 0.001481662611837144, 0.002077029895135054]], [[-0.035679978016022171, -0.039971454625746326, -0.09632450288487257, -0.031216827139522996, 0.16251986453499531, -0.20232957392144069, 0.29592956287067712, -0.26939276592501132, 0.1295291720571059, 0.034245154253072396, -0.10418813981538191, 0.091334308340682055, -0.039531762386142068], [0.2414117627590481, -0.12252256078530124, 0.22937303803093184, 0.025535184105449641, 0.36840672610004421, 0.1217217308676098, 0.28763408997039597, -0.078004380815511698, 0.044468541478315034, 0.10980641881371371, 0.10392259886780875, -0.019531412834663014, 0.059002802395758835], [0.25238999904646964, 0.039816636790653594, -0.10630279122853389, -0.31610247323085744, -0.011668747658209038, 0.064467284449174642, 0.5593233615265063, -0.24990622532802662, 0.070521797336317485, -0.01723330907696892, 0.10264929254630482, 0.028692720292678962, -0.069288880907977746], [2.2866902452581784e-05, 3.8689389620985128e-05, 0.00015687640983518062, 0.00021258260272889875, 0.00093803228619679033, -0.0022366425467149967, 0.97493960976442817, -0.0035554568981341992, 0.0018126558763565282, 0.0010025282065832773, 0.0019125453336552782, 0.0014528259396801052, 0.001582374232768888], [2.2866902452581784e-05, 3.8689389620985128e-05, 0.00015687640983518062, 0.00021258260272889875, 0.00093803228619679033, -0.0022366425467149967, 0.97493960976442817, -0.0035554568981341992, 0.0018126558763565282, 0.0010025282065832773, 0.0019125453336552782, 0.0014528259396801052, 0.001582374232768888], [2.2866902452581784e-05, 3.8689389620985128e-05, 0.00015687640983518062, 0.00021258260272889875, 0.00093803228619679033, -0.0022366425467149967, 0.97493960976442817, -0.0035554568981341992, 0.0018126558763565282, 0.0010025282065832773, 0.0019125453336552782, 0.0014528259396801052, 0.001582374232768888]], [[0.0016964017156856277, -0.0028000412809924611, -0.034287231690657484, 0.033671969091853583, -0.086258028508521947, 0.13513396129987165, -0.11605802628043009, 0.17653314971293338, -0.12986355627484111, 0.12368305348785467, -0.079341178878484575, 0.050694304591619735, -0.007289000233299067], [0.070338819549574993, 0.3241181675849939, 0.073687695443673512, 0.20702134618574608, -0.0024884590266428626, 0.18702023329938025, -0.0044539120994736706, 0.14360576826209884, -0.015349908358623191, 0.058985619654697459, 0.071221951291129071, -0.0052947986475624393, 0.013109261364685621], [7.6532010285063035e-06, 7.1242481520600933e-05, 8.1702044220354305e-05, 0.00030720024571916278, 0.00037875864700924022, 0.0012917982738721969, -0.0029386347008375805, 0.97243386209193927, -0.0046101934122885144, 0.0017003766122992378, 0.00062460191239589215, 0.0016162414571655745, 0.0010123114709359809], [7.6532010285063035e-06, 7.1242481520600933e-05, 8.1702044220354305e-05, 0.00030720024571916278, 0.00037875864700924022, 0.0012917982738721969, -0.0029386347008375805, 0.97243386209193927, -0.0046101934122885144, 0.0017003766122992378, 0.00062460191239589215, 0.0016162414571655745, 0.0010123114709359809], [7.6532010285063035e-06, 7.1242481520600933e-05, 8.1702044220354305e-05, 0.00030720024571916278, 0.00037875864700924022, 0.0012917982738721969, -0.0029386347008375805, 0.97243386209193927, -0.0046101934122885144, 0.0017003766122992378, 0.00062460191239589215, 0.0016162414571655745, 0.0010123114709359809], [7.6532010285063035e-06, 7.1242481520600933e-05, 8.1702044220354305e-05, 0.00030720024571916278, 0.00037875864700924022, 0.0012917982738721969, -0.0029386347008375805, 0.97243386209193927, -0.0046101934122885144, 0.0017003766122992378, 0.00062460191239589215, 0.0016162414571655745, 0.0010123114709359809]]], prehc: 0, lambdahc: 0, rcut: 5.5, dcut: 0.01, rcut_in: 0, dcut_in: 0, inner_cutoff_type: distance}
functions:
  0:
    - {mu0: 0, rank: 1, ndensity: 6, num_ms_combs: 1, mus: [0], ns: [1], ls: [0], ms_combs: [0], ctildes: [0.26302982452892237, -0.14914688566621889, 0.023326129100200939, -0.034154762988107629, 0.050194284852385841, -0.068337228487008309]}
    - {mu0: 0, rank: 1, ndensity: 6, num_ms_combs: 1, mus: [0], ns: [2], ls: [0], ms_combs: [0], ctildes: [-0.0080003652059463179, 0.084020534631590815, -0.083598109119616529, 0.023599374461112207, 0.10954792421524806, -0.156729200244272]}
    - {mu0: 0, rank: 1, ndensity: 6, num_ms_combs: 1, mus: [0], ns: [3], ls: [0], ms_combs: [0], ctildes: [0.063292298655046861, -0.096969107653610179, -0.034749719418386039, 0.049625837691903006, -0.041877193346245421, 0.074963881577453956]}
    - {mu0: 0, rank: 1, ndensity: 6, num_ms_combs: 1, mus: [0], ns: [4], ls: [0], ms_combs: [0], ctildes: [0.040530730254087662, -0.01706139013884048, -0.031238183411140059, -0.0049028293520586731, 0.067798147697806829, -0.050212576390255247]}
    - {mu0: 0, rank: 1, ndensity: 6, num_ms_combs: 1, mus: [0], ns: [5], ls: [0], ms_combs: [0], ctildes: [-0.0070079459014928645, 0.031766075688208516, 0.023611655868765621, -0.0017893172864062766, -0.027103321574018423, -0.029135167200563829]}
    - {mu0: 0, rank: 1, ndensity: 6, num_ms_combs: 1, mus: [0], ns: [6], ls: [0], ms_combs: [0], ctildes: [0.026034320283998394, -0.04370855047010682, -0.043794075473842189, 0.019697369723621769, -0.009647852980682093, 0.00036909668452191589]}
    - {mu0: 0, rank: 1, ndensity: 6, num_ms_combs: 1, mus: [0], ns: [7], ls: [0], ms_combs: [0], ctildes: [0.027119743615641324, 0.062347515429189912, 0.0044762920785207253, 0.0019740083614238121, 0.04236538548681347, -0.012809015898899961]}
    - {mu0: 0, rank: 1, ndensity: 6, num_ms_combs: 1, mus: [0], ns: [8], ls: [0], ms_combs: [0], ctildes: [-0.034402988333530553, -0.058978131290768107, -0.0066264923243738805, -0.0056012889883576026, -0.02575053039135285, 0.0038961651100697355]}
    - {mu0: 0, rank: 1, ndensity: 6, num_ms_combs: 1, mus: [0], ns: [9], ls: [0], ms_combs: [0], ctildes: [0.045827204914332155, 0.02502523726063665, 0.003335427467304562, 0.012533228682948429, 0.012470879293463463, -0.01149762997235673]}
    - {mu0: 0, rank: 1, ndensity: 6, num_ms_combs: 1, mus: [0], ns: [10], ls: [0], ms_combs: [0], ctildes: [-0.02514489804118749, 0.0082944456314793229, -0.017519348840230469, -0.008987039390501779, 0.0083088044327791748, -0.0020090426281073768]}
    - {mu0: 0, rank: 1, ndensity: 6, num_ms_combs: 1, mus: [0], ns: [11], ls: [0], ms_combs: [0], ctildes: [0.021526864233567363, -0.020966610305800035, 0.0092045036983391289, 0.01735994662779344, -0.010952450403497176, 0.0026822744111961172]}
    - {mu0: 0, rank: 1, ndensity: 6, num_ms_combs: 1, mus: [0], ns: [12], ls: [0], ms_combs: [0], ctildes: [-0.0078263017235535581, 0.01712190352311763, -0.0071624511209857581, -0.013717892461517278, 0.0098342473650616224, -0.00824599085800992]}
    - {mu0: 0, rank: 1, ndensity: 6, num_ms_combs: 1, mus: [0], ns: [13], ls: [0], ms_combs: [0], ctildes: [0.0073858352197664831, -0.012030988230912507, -0.0013862855359531915, 0.0098732042407040175, -0.00037343170105515617, 0.0020002182306109043]}
    - {mu0: 0, rank: 1, ndensity: 6, num_ms_combs: 1, mus: [1], ns: [1], ls: [0], ms_combs: [0], ctildes: [0.077031313749186606, -0.33918716666876525, -0.1279290733729451, -0.22574220468772319, -0.37519496186812196, -0.033404245876748485]}
    - {mu0: 0, rank: 1, ndensity: 6, num_ms_combs: 1, mus: [1], ns: [2], ls: [0], ms_combs: [0], ctildes: [0.027603869131043238, 0.21748134602056965, -0.088259968639570058, 0.17000543038224306, 0.029599494652725596, -0.11256063718793691]}
    - {mu0: 0, rank: 1, ndensity: 6, num_ms_combs: 1, mus: [1], ns: [3], ls: [0], ms_combs: [0], ctildes: [0.048266568383683497, -0.06232340467576148, 0.00093818129743197332, 0.02454362684221181, -0.014430209908171987, 0.030533788672723525]}
    - {mu0: 0, rank: 1, ndensity: 6, num_ms_combs: 1, mus: [1], ns: [4], ls: [0], ms_combs: [0], ctildes: [0.033320195030140685, -0.14474710639544563, 0.010332327727235188, -0.12726225658174248, -0.094448921001207997, 0.03630066934846523]}
    - {mu0: 0, rank: 1, ndensity: 6, num_ms_combs: 1, mus: [1], ns: [5], ls: [0], ms_combs: [0], ctildes: [0.010047085491662302, 0.16196127205852115, 0.019037462154031022, 0.032487110745503756, 0.033137646400759023, -0.033199055363029265]}
    - {mu0: 0, rank: 1, ndensity: 6, num_ms_combs: 1, mus: [1], ns: [6], ls: [0], ms_combs: [0], ctildes: [-0.032430240034240901, -0.081313201078282715, -0.029903864050875886, 0.052870655823199157, 0.0038393681490598783, -0.023645892963322]}
    - {mu0: 0, rank: 1, ndensity: 6, num_ms_combs: 1, mus: [1], ns: [7], ls: [0], ms_combs: [0], ctildes: [0.046399903111618394, 0.048529976724489159, -0.0075021187250554058, -0.090139334370580138, -0.051942159647037599, 0.063194751918076081]}
    - {mu0: 0, rank: 1, ndensity: 6, num_ms_combs: 1, mus: [1], ns: [8], ls: [0], ms_combs: [0], ctildes: [-0.034232639472090202, 0.0061596137634393252, 0.015517659451400996, 0.067849846375637568, 0.017013721751456101, -0.03852030532619144]}
    - {mu0: 0, rank: 1, ndensity: 6, num_ms_combs: 1, mus: [1], ns: [9], ls: [0], ms_combs: [0], ctildes: [0.022184653570347199, -0.01898786438512853, -0.0048110779657416607, -0.044700983405680163, 0.0048809365226346766, 0.0030602913441965308]}
    - {mu0: 0, rank: 1, ndensity: 6, num_ms_combs: 1, mus: [1], ns: [10], ls: [0], ms_combs: [0], ctildes: [-0.0045475779235492004, 0.011205319608306168, -0.0049532425699789027, 0.017871567470166296, -0.020825682783514998, 0.013092445540500337]}
    - {mu0: 0, rank: 2, ndensity: 6, num_ms_combs: 1, mus: [0, 0], ns: [1, 1], ls: [0, 0], ms_combs: [0, 0], ctildes: [0.017645292811740182, -0.12695892633479286, 0.05060457029473768, -0.090484754247281446, -0.029176197482910171, 0.0077591754572624034]}
    - {mu0: 0, rank: 2, ndensity: 6, num_ms_combs: 2, mus: [0, 0], ns: [1, 1], ls: [1, 1], ms_combs: [0, 0, 1, -1], ctildes: [-0.00086735745431945849, -0.015687655781941819, 0.022462918600071238, -0.069983653281882011, -0.040388461572920732, -0.012506835747223371, 0.0017347149086389168, 0.03137531156388363, -0.044925837200142468, 0.13996730656376399, 0.080776923145841451, 0.025013671494446735]}
    - {mu0: 0, rank: 2, ndensity: 6, num_ms_combs: 3, mus: [0, 0], ns: [1, 1], ls: [2, 2], ms_combs: [0, 0, 1, -1, 2, -2], ctildes: [0.042224906301964106, -0.0076746246728009535, 0.0063857136048378477, -0.063593068036137526, -0.00075502331138157987, -0.014744237521707632, -0.084449812603928226, 0.015349249345601911, -0.012771427209675697, 0.12718613607227508, 0.00151004662276316, 0.029488475043415268, 0.084449812603928226, -0.015349249345601911, 0.012771427209675697, -0.12718613607227508, -0.00151004662276316, -0.029488475043415268]}
    - {mu0: 0, rank: 2, ndensity: 6, num_ms_combs: 4, mus: [0, 0], ns: [1, 1], ls: [3, 3], ms_combs: [0, 0, 1, -1, 2, -2, 3, -3], ctildes: [0.012894534896054594, 0.017425637323023411, -0.0057257006074543423, -0.020405171938986853, 0.019664002689918397, -0.0040886598905974228, -0.025789069792109192, -0.034851274646046829, 0.011451401214908686, 0.040810343877973713, -0.039328005379836793, 0.0081773197811948455, 0.025789069792109189, 0.034851274646046822, -0.011451401214908685, -0.040810343877973707, 0.039328005379836793, -0.0081773197811948455, -0.025789069792109189, -0.034851274646046822, 0.011451401214908685, 0.040810343877973707, -0.039328005379836793, 0.0081773197811948455]}
    - {mu0: 0, rank: 2, ndensity: 6, num_ms_combs: 5, mus: [0, 0], ns: [1, 1], ls: [4, 4], ms_combs: [0, 0, 1, -1, 2, -2, 3, -3, 4, -4], ctildes: [0.0053028520240092029, 0.036103414761581791, -0.013421985226244666, -0.015679063156989585, -0.023509213573047697, 0.0088237846613733826, -0.010605704048018404, -0.072206829523163568, 0.026843970452489326, 0.031358126313979162, 0.047018427146095387, -0.017647569322746762, 0.010605704048018404, 0.072206829523163568, -0.026843970452489326, -0.031358126313979162, -0.047018427146095387, 0.017647569322746762, -0.010605704048018402, -0.072206829523163554, 0.026843970452489322, 0.031358126313979162, 0.047018427146095373, -0.017647569322746762, 0.010605704048018404, 0.072206829523163568, -0.026843970452489326, -0.031358126313979162, -0.047018427146095387, 0.017647569322746762]}
    - {mu0: 0, rank: 2, ndensity: 6, num_ms_combs: 6, mus: [0, 0], ns: [1, 1], ls: [5, 5], ms_combs: [0, 0, 1, -1, 2, -2, 3, -3, 4, -4, 5, -5], ctildes: [0.0060643434815781253, 0.02530266236983475, -0.01963069858575411, -0.0043467744033150986, -0.019955284937690429, 0.015717681773585308, -0.012128686963156249, -0.050605324739669492, 0.039261397171508214, 0.0086935488066301955, 0.039910569875380851, -0.031435363547170608, 0.012128686963156251, 0.050605324739669499, -0.039261397171508221, -0.0086935488066301973, -0.039910569875380858, 0.031435363547170615, -0.012128686963156249, -0.050605324739669492, 0.039261397171508214, 0.0086935488066301955, 0.039910569875380851, -0.031435363547170608, 0.012128686963156251, 0.050605324739669499, -0.039261397171508221, -0.0086935488066301973, -0.039910569875380858, 0.031435363547170615, -0.012128686963156242, -0.050605324739669465, 0.039261397171508193, 0.0086935488066301921, 0.03991056987538083, -0.031435363547170588]}
    - {mu0: 0, rank: 2, ndensity: 6, num_ms_combs: 1, mus: [0, 0], ns: [1, 2], ls: [0, 0], ms_combs: [0, 0], ctildes: [-0.0095414717183843357, 0.080305007590876692, 0.045945189293858914, 0.043794723191880353, 0.17683428932858472, -0.080150663448538328]}
    - {mu0: 0, rank: 2, ndensity: 6, num_ms_combs: 2, mus: [0, 0], ns: [1, 2], ls: [1, 1], ms_combs: [0, 0, 1, -1], ctildes: [-0.010877068090741855, 0.066353687870106787, 0.00019926281924321815, 0.030152713865009857, 0.028678991862286493, 0.0017819270544471451, 0.021754136181483707, -0.13270737574021355, -0.00039852563848643619, -0.060305427730019706, -0.057357983724572979, -0.0035638541088942898]}
    - {mu0: 0, rank: 2, ndensity: 6, num_ms_combs: 3, mus: [0, 0], ns: [1, 2], ls: [2, 2], ms_combs: [0, 0, 1, -1, 2, -2], ctildes: [-0.0010364184465235019, 0.083321236736335846, 0.0021490296950275076, 0.0036148379430755335, 0.01212632054243472, -0.01608564354067589, 0.0020728368930470042, -0.16664247347267172, -0.004298059390055016, -0.007229675886151068, -0.024252641084869443, 0.032171287081351779, -0.0020728368930470042, 0.16664247347267172, 0.004298059390055016, 0.007229675886151068, 0.024252641084869443, -0.032171287081351779]}
    - {mu0: 0, rank: 2, ndensity: 6, num_ms_combs: 4, mus: [0, 0], ns: [1, 2], ls: [3, 3], ms_combs: [0, 0, 1, -1, 2, -2, 3, -3], ctildes: [4.5665991580291296e-05, -0.0046986141655129795, -0.0092767228492379485, 0.024081279328076747, 0.028096016684437827, -0.016498587729163051, -9.1331983160582606e-05, 0.0093972283310259589, 0.0185534456984759, -0.048162558656153501, -0.056192033368875662, 0.03299717545832611, 9.1331983160582592e-05, -0.0093972283310259589, -0.018553445698475897, 0.048162558656153494, 0.056192033368875655, -0.032997175458326103, -9.1331983160582592e-05, 0.0093972283310259589, 0.018553445698475897, -0.048162558656153494, -0.056192033368875655, 0.032997175458326103]}
    - {mu0: 0, rank: 2, ndensity: 6, num_ms_combs: 5, mus: [0, 0], ns: [1, 2], ls: [4, 4], ms_combs: [0, 0, 1, -1, 2, -2, 3, -3, 4, -4], ctildes: [-0.0067338225876292165, -0.021604764304674128, 0.019080513299230141, 0.022759438039640516, 0.0254522326096863, -0.020368903453867014, 0.01346764517525843, 0.043209528609348249, -0.038161026598460275, -0.045518876079281026, -0.050904465219372592, 0.040737806907734021, -0.01346764517525843, -0.043209528609348249, 0.038161026598460275, 0.045518876079281026, 0.050904465219372592, -0.040737806907734021, 0.013467645175258428, 0.043209528609348243, -0.038161026598460268, -0.045518876079281019, -0.050904465219372586, 0.040737806907734014, -0.01346764517525843, -0.043209528609348249, 0.038161026598460275, 0.045518876079281026, 0.050904465219372592, -0.040737806907734021]}
    - {mu0: 0, rank: 2, ndensity: 6, num_ms_combs: 1, mus: [0, 0], ns: [1, 3], ls: [0, 0], ms_combs: [0, 0], ctildes: [0.013294336226761377, -0.18443524996199445, 0.0028211987737519185, -0.083765339445214249, -0.16235289688580487, 0.095469333851822158]}
    - {mu0: 0, rank: 2, ndensity: 6, num_ms_combs: 2, mus: [0, 0], ns: [1, 3], ls: [1, 1], ms_combs: [0, 0, 1, -1], ctildes: [0.035916428518894469, -0.14377887676026166, 0.011017210197894338, 0.016077522513212126, -0.11316194188634282, 0.11015797398536181, -0.071832857037788925, 0.28755775352052326, -0.022034420395788668, -0.032155045026424245, 0.22632388377268561, -0.22031594797072357]}
    - {mu0: 0, rank: 2, ndensity: 6, num_ms_combs: 3, mus: [0, 0], ns: [1, 3], ls: [2, 2], ms_combs: [0, 0, 1, -1, 2, -2], ctildes: [0.0094513716992787183, -0.058368027660133243, 0.0020387537343723458, 0.022967637807925427, -0.02210686373480035, 0.03074828233548986, -0.018902743398557437, 0.1167360553202665, -0.0040775074687446925, -0.045935275615850861, 0.044213727469600707, -0.061496564670979727, 0.018902743398557437, -0.1167360553202665, 0.0040775074687446925, 0.045935275615850861, -0.044213727469600707, 0.061496564670979727]}
    - {mu0: 0, rank: 2, ndensity: 6, num_ms_combs: 4, mus: [0, 0], ns: [1, 3], ls: [3, 3], ms_combs: [0, 0, 1, -1, 2, -2, 3, -3], ctildes: [-0.0053863992264773395, -0.043752052457349706, 0.011538660423747191, 0.0015405691364697833, -0.0025028179683330098, 0.012244746427688549, 0.010772798452954681, 0.087504104914699427, -0.023077320847494386, -0.003081138272939567, 0.0050056359366660204, -0.024489492855377101, -0.010772798452954679, -0.087504104914699413, 0.023077320847494382, 0.0030811382729395665, -0.0050056359366660195, 0.024489492855377097, 0.010772798452954679, 0.087504104914699413, -0.023077320847494382, -0.0030811382729395665, 0.0050056359366660195, -0.024489492855377097]}
    - {mu0: 0, rank: 2, ndensity: 6, num_ms_combs: 5, mus: [0, 0], ns: [1, 3], ls: [4, 4], ms_combs: [0, 0, 1, -1, 2, -2, 3, -3, 4, -4], ctildes: [-0.0032312703455208524, -0.023261326141616068, 0.0077778270414284008, -0.014945856190455084, 0.0048552293469068713, 0.0070165241876677022, 0.006462540691041704, 0.04652265228323213, -0.0155556540828568, 0.029891712380910165, -0.0097104586938137408, -0.014033048375335403, -0.006462540691041704, -0.04652265228323213, 0.0155556540828568, -0.029891712380910165, 0.0097104586938137408, 0.014033048375335403, 0.0064625406910417032, 0.046522652283232123, -0.015555654082856796, 0.029891712380910158, -0.009710458693813739, -0.014033048375335401, -0.006462540691041704, -0.04652265228323213, 0.0155556540828568, -0.029891712380910165, 0.0097104586938137408, 0.014033048375335403]}
    - {mu0: 0, rank: 2, ndensity: 6, num_ms_combs: 1, mus: [0, 0], ns: [1, 4], ls: [0, 0], ms_combs: [0, 0], ctildes: [0.044395369969313064, 0.025324990901711517, 0.017481963437487855, 0.082596018155974379, 0.12432674551163665, 0.0026422295645127055]}
    - {mu0: 0, rank: 2, ndensity: 6, num_ms_combs: 2, mus: [0, 0], ns: [1, 4], ls: [1, 1], ms_combs: [0, 0, 1, -1], ctildes: [0.00054968944803283188, -0.0010664734394413057, -0.012176601331215281, -0.017341635154889821, 0.011169636828178875, -0.027369302652431635, -0.0010993788960656635, 0.0021329468788826109, 0.024353202662430559, 0.034683270309779642, -0.022339273656357746, 0.054738605304863255]}
    - {mu0: 0, rank: 2, ndensity: 6, num_ms_combs: 3, mus: [0, 0], ns: [1, 4], ls: [2, 2], ms_combs: [0, 0, 1, -1, 2, -2], ctildes: [0.0068923261151111557, 0.0091530081360385145, -0.028640089262165418, 0.01937366277096712, 0.011604413451039365, 0.006358713560440256, -0.013784652230222313, -0.018306016272077029, 0.057280178524330844, -0.038747325541934247, -0.02320882690207873, -0.012717427120880514, 0.013784652230222313, 0.018306016272077029, -0.057280178524330844, 0.038747325541934247, 0.02320882690207873, 0.012717427120880514]}
    - {mu0: 0, rank: 2, ndensity: 6, num_ms_combs: 4, mus: [0, 0], ns: [1, 4], ls: [3, 3], ms_combs: [0, 0, 1, -1, 2, -2, 3, -3], ctildes: [0.0058060079557640809, 0.058865503427663599, -0.012538845632640567, -0.034984353106548044, 0.0046354874022523137, -0.013604805392786756, -0.011612015911528164, -0.11773100685532722, 0.02507769126528114, 0.069968706213096102, -0.0092709748045046291, 0.027209610785573515, 0.011612015911528162, 0.1177310068553272, -0.025077691265281133, -0.069968706213096088, 0.0092709748045046274, -0.027209610785573511, -0.011612015911528162, -0.1177310068553272, 0.025077691265281133, 0.069968706213096088, -0.0092709748045046274, 0.027209610785573511]}
    - {mu0: 0, rank: 2, ndensity: 6, num_ms_combs: 1, mus: [0, 0], ns: [1, 5], ls: [0, 0], ms_combs: [0, 0], ctildes: [-0.0070024006298723849, 0.017032898481496882, 0.057787321930476102, 0.081586748713912041, -0.0028110011853984501, -0.022446014668714945]}
    - {mu0: 0, rank: 2, ndensity: 6, num_ms_combs: 2, mus: [0, 0], ns: [1, 5], ls: [1, 1], ms_combs: [0, 0, 1, -1], ctildes: [-0.015964284881352417, 0.012663255964590212, 0.0057487608632861703, 0.087506623799000649, -0.0021479941813370104, -0.0036190167861391421, 0.031928569762704827, -0.025326511929180416, -0.011497521726572339, -0.17501324759800127, 0.0042959883626740199, 0.0072380335722782834]}
    - {mu0: 0, rank: 2, ndensity: 6, num_ms_combs: 3, mus: [0, 0], ns: [1, 5], ls: [2, 2], ms_combs: [0, 0, 1, -1, 2, -2], ctildes: [0.0012587376511205958, 0.029135891098232294, 0.025107260905131618, -0.01162800660996325, -0.036036734065763236, -0.030925986240813389, -0.0025174753022411916, -0.058271782196464596, -0.050214521810263237, 0.023256013219926503, 0.072073468131526472, 0.061851972481626785, 0.0025174753022411916, 0.058271782196464596, 0.050214521810263237, -0.023256013219926503, -0.072073468131526472, -0.061851972481626785]}
    - {mu0: 0, rank: 2, ndensity: 6, num_ms_combs: 4, mus: [0, 0], ns: [1, 5], ls: [3, 3], ms_combs: [0, 0, 1, -1, 2, -2, 3, -3], ctildes: [0.0082722456998842626, -0.048811861491888903, 0.0059571931828453122, -0.0041971267887575591, 0.020247973522025592, -0.0047430538591738802, -0.016544491399768529, 0.097623722983777819, -0.011914386365690626, 0.0083942535775151199, -0.040495947044051191, 0.0094861077183477603, 0.016544491399768525, -0.097623722983777805, 0.011914386365690624, -0.0083942535775151182, 0.040495947044051184, -0.0094861077183477603, -0.016544491399768525, 0.097623722983777805, -0.011914386365690624, 0.0083942535775151182, -0.040495947044051184, 0.0094861077183477603]}
    - {mu0: 0, rank: 2, ndensity: 6, num_ms_combs: 1, mus: [0, 0], ns: [1, 6], ls: [0, 0], ms_combs: [0, 0], ctildes: [-0.0011306410884556804, -0.023036572540500261, -0.0032862785122030652, -0.041428552007025034, 0.031887911045051523, 0.062442782878686834]}
    - {mu0: 0, rank: 2, ndensity: 6, num_ms_combs: 2, mus: [0, 0], ns: [1, 6], ls: [1, 1], ms_combs: [0, 0, 1, -1], ctildes: [-0.0035557848043182893, -0.049770288204850223, -0.02402164269299328, 0.033638927086855806, 0.00061564923188366007, 0.051341790921042976, 0.0071115696086365776, 0.099540576409700418, 0.048043285385986546, -0.067277854173711599, -0.0012312984637673199, -0.10268358184208594]}
    - {mu0: 0, rank: 2, ndensity: 6, num_ms_combs: 3, mus: [0, 0], ns: [1, 6], ls: [2, 2], ms_combs: [0, 0, 1, -1, 2, -2], ctildes: [-0.0087541106017823903, 0.035460004940273071, 0.0033174107453294026, -0.020347783705855091, 0.0098728415821524289, -0.0034056913386619888, 0.017508221203564781, -0.070920009880546156, -0.0066348214906588061, 0.040695567411710189, -0.019745683164304861, 0.0068113826773239785, -0.017508221203564781, 0.070920009880546156, 0.0066348214906588061, -0.040695567411710189, 0.019745683164304861, -0.0068113826773239785]}
    - {mu0: 0, rank: 2, ndensity: 6, num_ms_combs: 1, mus: [0, 0], ns: [1, 7], ls: [0, 0], ms_combs: [0, 0], ctildes: [-0.0021596747396013158, -0.010249053741511492, 0.023366364051868486, -0.005351990392784849, 0.036042585401090718, -0.060380828169165082]}
    - {mu0: 0, rank: 2, ndensity: 6, num_ms_combs: 2, mus: [0, 0], ns: [1, 7], ls: [1, 1], ms_combs: [0, 0, 1, -1], ctildes: [0.01993141305106632, -0.040537610193610372, 0.025229307166978597, -0.020843081024280924, -0.075412168823411618, 0.0050750406892858136, -0.039862826102132633, 0.081075220387220731, -0.050458614333957187, 0.041686162048561841, 0.15082433764682321, -0.010150081378571625]}
    - {mu0: 0, rank: 2, ndensity: 6, num_ms_combs: 3, mus: [0, 0], ns: [1, 7], ls: [2, 2], ms_combs: [0, 0, 1, -1, 2, -2], ctildes: [0.0067749381774890082, -0.058678680761893184, 0.0020888371823112196, 0.022677783523641477, -0.05231782782818134, 0.037285766512515438, -0.013549876354978018, 0.11735736152378638, -0.0041776743646224392, -0.045355567047282962, 0.10463565565636269, -0.074571533025030876, 0.013549876354978018, -0.11735736152378638, 0.0041776743646224392, 0.045355567047282962, -0.10463565565636269, 0.074571533025030876]}
    - {mu0: 0, rank: 2, ndensity: 6, num_ms_combs: 1, mus: [0, 0], ns: [1, 8], ls: [0, 0], ms_combs: [0, 0], ctildes: [0.02575194335032889, -0.19242558451559708, 0.048611296696685548, -0.019422794526990458, -0.091771164337467154, 0.089474066186720158]}
    - {mu0: 0, rank: 2, ndensity: 6, num_ms_combs: 2, mus: [0, 0], ns: [1, 8], ls: [1, 1], ms_combs: [0, 0, 1, -1], ctildes: [0.011425300627796064, -0.017323067732759476, -0.023287050894502153, 0.034284973678609332, 0.0036467462680130056, 0.01137239248784354, -0.022850601255592125, 0.034646135465518944, 0.046574101789004299, -0.06856994735721865, -0.0072934925360260104, -0.022744784975687077]}
    - {mu0: 0, rank: 2, ndensity: 6, num_ms_combs: 1, mus: [0, 0], ns: [2, 2], ls: [0, 0], ms_combs: [0, 0], ctildes: [-0.0070734843224598094, 0.17751061521173847, 0.045640093860488555, 0.014093119287417796, 0.08225910858229922, -0.02748010500309922]}
    - {mu0: 0, rank: 2, ndensity: 6, num_ms_combs: 2, mus: [0, 0], ns: [2, 2], ls: [1, 1], ms_combs: [0, 0, 1, -1], ctildes: [0.02769524272370931, -0.036983777028544301, 0.029563438474886582, -0.033592247917540959, -0.034007344583419419, 0.016631134888481912, -0.055390485447418605, 0.073967554057088589, -0.059126876949773151, 0.067184495835081903, 0.068014689166838824, -0.033262269776963817]}
    - {mu0: 0, rank: 2, ndensity: 6, num_ms_combs: 3, mus: [0, 0], ns: [2, 2], ls: [2, 2], ms_combs: [0, 0, 1, -1, 2, -2], ctildes: [0.012570295012070912, -0.042412194133978245, 0.022759195765656534, 0.0088817994851435825, -0.022242187860971405, 0.010087499210257927, -0.025140590024141828, 0.084824388267956505, -0.045518391531313075, -0.017763598970287169, 0.044484375721942818, -0.020174998420515854, 0.025140590024141828, -0.084824388267956505, 0.045518391531313075, 0.017763598970287169, -0.044484375721942818, 0.020174998420515854]}
    - {mu0: 0, rank: 2, ndensity: 6, num_ms_combs: 4, mus: [0, 0], ns: [2, 2], ls: [3, 3], ms_combs: [0, 0, 1, -1, 2, -2, 3, -3], ctildes: [0.0010946955131142515, -0.058824165797665862, 0.0086709745501485826, -0.030953182568862411, -0.013664947857676602, 0.01579048581462171, -0.0021893910262285035, 0.11764833159533174, -0.017341949100297169, 0.061906365137724829, 0.027329895715353207, -0.031580971629243428, 0.002189391026228503, -0.11764833159533172, 0.017341949100297165, -0.061906365137724823, -0.027329895715353204, 0.031580971629243421, -0.002189391026228503, 0.11764833159533172, -0.017341949100297165, 0.061906365137724823, 0.027329895715353204, -0.031580971629243421]}
    - {mu0: 0, rank: 2, ndensity: 6, num_ms_combs: 5, mus: [0, 0], ns: [2, 2], ls: [4, 4], ms_combs: [0, 0, 1, -1, 2, -2, 3, -3, 4, -4], ctildes: [-0.0076770471139580316, -0.016036097808877308, 0.020210410390689385, -0.027277494760768427, 0.0078689752214926995, 7.1302356758608877e-05, 0.015354094227916061, 0.032072195617754609, -0.040420820781378763, 0.054554989521536847, -0.015737950442985395, -0.00014260471351721773, -0.015354094227916061, -0.032072195617754609, 0.040420820781378763, -0.054554989521536847, 0.015737950442985395, 0.00014260471351721773, 0.015354094227916058, 0.032072195617754602, -0.040420820781378757, 0.05455498952153684, -0.015737950442985392, -0.0001426047135172177, -0.015354094227916061, -0.032072195617754609, 0.040420820781378763, -0.054554989521536847, 0.015737950442985395, 0.00014260471351721773]}
    - {mu0: 0, rank: 2, ndensity: 6, num_ms_combs: 1, mus: [0, 0], ns: [2, 3], ls: [0, 0], ms_combs: [0, 0], ctildes: [-0.016551556276425582, 0.034681221049915972, -0.051777714262755868, 0.039207244461403723, 0.023663074373793364, 0.0025687880024417766]}
    - {mu0: 0, rank: 2, ndensity: 6, num_ms_combs: 2, mus: [0, 0], ns: [2, 3], ls: [1, 1], ms_combs: [0, 0, 1, -1], ctildes: [0.008694336622001541, 0.044428601984354429, 0.0020200656713116336, -0.021553193215949805, 0.021020490718751204, 0.016130637409929458, -0.017388673244003078, -0.088857203968708845, -0.0040401313426232663, 0.043106386431899603, -0.0420409814375024, -0.032261274819858909]}
    - {mu0: 0, rank: 2, ndensity: 6, num_ms_combs: 3, mus: [0, 0], ns: [2, 3], ls: [2, 2], ms_combs: [0, 0, 1, -1, 2, -2], ctildes: [-0.0060717170147617716, -0.01792663630199336, 0.018293454925076367, -0.033233071738188881, -0.029832440039304353, -0.012183742386526534, 0.012143434029523545, 0.035853272603986727, -0.036586909850152741, 0.066466143476377776, 0.059664880078608713, 0.024367484773053071, -0.012143434029523545, -0.035853272603986727, 0.036586909850152741, -0.066466143476377776, -0.059664880078608713, -0.024367484773053071]}
    - {mu0: 0, rank: 2, ndensity: 6, num_ms_combs: 4, mus: [0, 0], ns: [2, 3], ls: [3, 3], ms_combs: [0, 0, 1, -1, 2, -2, 3, -3], ctildes: [-0.0073684630455273029, 0.079583012138844472, -0.02057690530205996, 0.035229138749269633, 0.023974594370619474, -0.025038714309518012, 0.014736926091054607, -0.15916602427768897, 0.041153810604119927, -0.070458277498539279, -0.047949188741238956, 0.050077428619036031, -0.014736926091054606, 0.15916602427768894, -0.04115381060411992, 0.070458277498539265, 0.047949188741238949, -0.050077428619036024, 0.014736926091054606, -0.15916602427768894, 0.04115381060411992, -0.070458277498539265, -0.047949188741238949, 0.050077428619036024]}
    - {mu0: 0, rank: 2, ndensity: 6, num_ms_combs: 1, mus: [0, 0], ns: [2, 4], ls: [0, 0], ms_combs: [0, 0], ctildes: [0.066509353572163851, 0.0010879955699618197, 0.038719631741281367, -0.027948288562028738, 0.025067341037786104, -0.023025312247460523]}
    - {mu0: 0, rank: 2, ndensity: 6, num_ms_combs: 2, mus: [0, 0], ns: [2, 4], ls: [1, 1], ms_combs: [0, 0, 1, -1], ctildes: [-0.014447053506659681, -0.046733459168068557, -0.0016102392945429036, -0.065579975345860714, 0.00066726868605765052, -0.016204267506248718, 0.028894107013319355, 0.093466918336137086, 0.0032204785890858068, 0.1311599506917214, -0.0013345373721153008, 0.032408535012497429]}
    - {mu0: 0, rank: 2, ndensity: 6, num_ms_combs: 3, mus: [0, 0], ns: [2, 4], ls: [2, 2], ms_combs: [0, 0, 1, -1, 2, -2], ctildes: [0.010663963105458585, 0.002596473366251698, 0.0037406000016089805, -0.010649810756805055, 0.024831988080483026, -0.0037655034190361681, -0.021327926210917173, -0.0051929467325033968, -0.0074812000032179618, 0.021299621513610114, -0.049663976160966058, 0.007531006838072337, 0.021327926210917173, 0.0051929467325033968, 0.0074812000032179618, -0.021299621513610114, 0.049663976160966058, -0.007531006838072337]}
    - {mu0: 0, rank: 2, ndensity: 6, num_ms_combs: 4, mus: [0, 0], ns: [2, 4], ls: [3, 3], ms_combs: [0, 0, 1, -1, 2, -2, 3, -3], ctildes: [-0.0080259830433520012, -0.092993822028133361, 0.020565300095204079, 0.050947172823853998, 0.028170997737571483, 0.0037718279980703201, 0.016051966086704002, 0.18598764405626675, -0.041130600190408165, -0.10189434564770801, -0.056341995475142979, -0.007543655996140642, -0.016051966086704002, -0.18598764405626672, 0.041130600190408158, 0.101894345647708, 0.056341995475142966, 0.0075436559961406403, 0.016051966086704002, 0.18598764405626672, -0.041130600190408158, -0.101894345647708, -0.056341995475142966, -0.0075436559961406403]}
    - {mu0: 0, rank: 2, ndensity: 6, num_ms_combs: 1, mus: [0, 0], ns: [2, 5], ls: [0, 0], ms_combs: [0, 0], ctildes: [-0.047547146651114904, 0.045218158394178629, 0.016249487680070195, -0.012379778605323325, 0.022809707066214897, -0.0050664447008666206]}
    - {mu0: 0, rank: 2, ndensity: 6, num_ms_combs: 2, mus: [0, 0], ns: [2, 5], ls: [1, 1], ms_combs: [0, 0, 1, -1], ctildes: [-0.0031057383846038464, 0.057465756413874698, -0.039734752511941314, -0.020806191557669759, 0.054842191084214953, 0.0014544170398847543, 0.0062114767692076911, -0.11493151282774938, 0.079469505023882614, 0.041612383115339512, -0.10968438216842989, -0.0029088340797695082]}
    - {mu0: 0, rank: 2, ndensity: 6, num_ms_combs: 3, mus: [0, 0], ns: [2, 5], ls: [2, 2], ms_combs: [0, 0, 1, -1, 2, -2], ctildes: [-0.0068714288021539628, -0.024538281630309484, -0.022372475921391379, 0.0079280817881852601, -0.010404067760471569, -0.012187620589637949, 0.013742857604307927, 0.049076563260618974, 0.044744951842782758, -0.01585616357637052, 0.020808135520943138, 0.024375241179275902, -0.013742857604307927, -0.049076563260618974, -0.044744951842782758, 0.01585616357637052, -0.020808135520943138, -0.024375241179275902]}
    - {mu0: 0, rank: 2, ndensity: 6, num_ms_combs: 1, mus: [0, 0], ns: [2, 6], ls: [0, 0], ms_combs: [0, 0], ctildes: [0.045425557277958994, -0.03301694095737151, 0.015032611444187959, 0.033829854570022612, -0.0055514273394487255, 0.0044707640084748175]}
    - {mu0: 0, rank: 2, ndensity: 6, num_ms_combs: 2, mus: [0, 0], ns: [2, 6], ls: [1, 1], ms_combs: [0, 0, 1, -1], ctildes: [0.0030055071332611917, 0.0092454468591017473, 0.037651133024223481, 0.047975609261990321, -0.067392108880204568, -0.009818065493540808, -0.0060110142665223826, -0.018490893718203491, -0.075302266048446947, -0.095951218523980628, 0.13478421776040911, 0.019636130987081613]}
    - {mu0: 0, rank: 2, ndensity: 6, num_ms_combs: 3, mus: [0, 0], ns: [2, 6], ls: [2, 2], ms_combs: [0, 0, 1, -1, 2, -2], ctildes: [0.026228360757848738, -0.060750491090507709, 0.017999607906707238, -0.028916102245977141, -0.038751891321648135, 0.021679240785398745, -0.052456721515697483, 0.12150098218101543, -0.035999215813414483, 0.057832204491954288, 0.077503782643296285, -0.04335848157079749, 0.052456721515697483, -0.12150098218101543, 0.035999215813414483, -0.057832204491954288, -0.077503782643296285, 0.04335848157079749]}
    - {mu0: 0, rank: 2, ndensity: 6, num_ms_combs: 1, mus: [0, 0], ns: [2, 7], ls: [0, 0], ms_combs: [0, 0], ctildes: [-0.022696322676809329, 0.036905581957144891, -0.035329254176234483, -0.12190806567377885, 0.042557279932513362, 0.048352705245913112]}
    - {mu0: 0, rank: 2, ndensity: 6, num_ms_combs: 2, mus: [0, 0], ns: [2, 7], ls: [1, 1], ms_combs: [0, 0, 1, -1], ctildes: [-0.0029178519992847135, -0.032526252464116848, 0.010580981430001401, -0.017446977395426284, 0.019801277901367601, 0.022390195014325123, 0.0058357039985694253, 0.065052504928233681, -0.021161962860002798, 0.034893954790852562, -0.039602555802735195, -0.044780390028650238]}
    - {mu0: 0, rank: 2, ndensity: 6, num_ms_combs: 1, mus: [0, 0], ns: [2, 8], ls: [0, 0], ms_combs: [0, 0], ctildes: [-0.034533433434989082, 0.068492826538361362, 0.023010083905495565, -0.11731964513987607, 0.0097744668082909922, 0.046350849678031533]}
    - {mu0: 0, rank: 2, ndensity: 6, num_ms_combs: 2, mus: [0, 0], ns: [2, 8], ls: [1, 1], ms_combs: [0, 0, 1, -1], ctildes: [-0.014536404288645815, 0.041021555522914678, 0.0090080967144045166, -0.025981575518057486, 0.014871400553833581, -0.017949623567748041, 0.029072808577291626, -0.082043111045829342, -0.01801619342880903, 0.051963151036114964, -0.029742801107667159, 0.035899247135496075]}
    - {mu0: 0, rank: 2, ndensity: 6, num_ms_combs: 1, mus: [0, 0], ns: [3, 3], ls: [0, 0], ms_combs: [0, 0], ctildes: [0.0059700397727189417, -0.077031840131714435, 0.07155937380061117, -0.0090191324887139539, -0.046203592545923378, 0.0064546980813729561]}
    - {mu0: 0, rank: 2, ndensity: 6, num_ms_combs: 2, mus: [0, 0], ns: [3, 3], ls: [1, 1], ms_combs: [0, 0, 1, -1], ctildes: [0.0065956955047626218, -0.06594968229819935, 0.0037125671493237833, -0.0074185900313932743, 0.02477891920795567, -0.039290553867150885, -0.013191391009525242, 0.13189936459639867, -0.0074251342986475649, 0.014837180062786547, -0.049557838415911326, 0.078581107734301756]}
    - {mu0: 0, rank: 2, ndensity: 6, num_ms_combs: 3, mus: [0, 0], ns: [3, 3], ls: [2, 2], ms_combs: [0, 0, 1, -1, 2, -2], ctildes: [0.016252574662262091, -0.022468201771274128, 0.010445821365079289, -0.0058479371581507582, -0.035304945811914117, 0.016139142348616495, -0.032505149324524189, 0.044936403542548263, -0.020891642730158581, 0.011695874316301516, 0.070609891623828247, -0.032278284697232991, 0.032505149324524189, -0.044936403542548263, 0.020891642730158581, -0.011695874316301516, -0.070609891623828247, 0.032278284697232991]}
    - {mu0: 0, rank: 2, ndensity: 6, num_ms_combs: 4, mus: [0, 0], ns: [3, 3], ls: [3, 3], ms_combs: [0, 0, 1, -1, 2, -2, 3, -3], ctildes: [0.0049849311270029175, -0.041416084799236981, -0.00034297052646973402, 0.03405842190120982, -0.0082019747326612276, 0.0049512221941904848, -0.0099698622540058349, 0.082832169598473976, 0.00068594105293946816, -0.068116843802419655, 0.016403949465322455, -0.0099024443883809713, 0.0099698622540058349, -0.082832169598473962, -0.00068594105293946805, 0.068116843802419641, -0.016403949465322455, 0.0099024443883809696, -0.0099698622540058349, 0.082832169598473962, 0.00068594105293946805, -0.068116843802419641, 0.016403949465322455, -0.0099024443883809696]}
    - {mu0: 0, rank: 2, ndensity: 6, num_ms_combs: 1, mus: [0, 0], ns: [3, 4], ls: [0, 0], ms_combs: [0, 0], ctildes: [-0.0030489775140817672, 0.075117229848563782, -0.090149020649638353, 0.0404389331222679, 0.04307158874966141, 0.015835853350425678]}
    - {mu0: 0, rank: 2, ndensity: 6, num_ms_combs: 2, mus: [0, 0], ns: [3, 4], ls: [1, 1], ms_combs: [0, 0, 1, -1], ctildes: [-0.029631079673668514, 0.03072956113354329, 0.022017422826180556, 0.031933081901771784, 0.0066535326746387452, -0.048208486061422487, 0.059262159347337022, -0.061459122267086573, -0.044034845652361106, -0.063866163803543555, -0.013307065349277487, 0.09641697212284496]}
    - {mu0: 0, rank: 2, ndensity: 6, num_ms_combs: 3, mus: [0, 0], ns: [3, 4], ls: [2, 2], ms_combs: [0, 0, 1, -1, 2, -2], ctildes: [0.012623607961628027, 0.0046882886937762904, 0.002144508752809437, 0.031636067869373015, -0.0046012236201957999, -1.0824940212366025e-05, -0.025247215923256058, -0.0093765773875525808, -0.0042890175056188749, -0.06327213573874603, 0.0092024472403916015, 2.1649880424732053e-05, 0.025247215923256058, 0.0093765773875525808, 0.0042890175056188749, 0.06327213573874603, -0.0092024472403916015, -2.1649880424732053e-05]}
    - {mu0: 0, rank: 2, ndensity: 6, num_ms_combs: 1, mus: [0, 0], ns: [3, 5], ls: [0, 0], ms_combs: [0, 0], ctildes: [0.035488602079391925, -0.038335062938573791, 0.03034339910569845, 0.028224510710923644, -0.079687026580634951, 0.022401786618296917]}
    - {mu0: 0, rank: 2, ndensity: 6, num_ms_combs: 2, mus: [0, 0], ns: [3, 5], ls: [1, 1], ms_combs: [0, 0, 1, -1], ctildes: [0.0092497402507331072, -0.049678669977807732, -0.00053497757409847108, -0.0076927575356756329, 0.0094255508321837989, 0.0062429742388257796, -0.018499480501466211, 0.099357339955615451, 0.001069955148196942, 0.015385515071351262, -0.018851101664367594, -0.012485948477651557]}
    - {mu0: 0, rank: 2, ndensity: 6, num_ms_combs: 3, mus: [0, 0], ns: [3, 5], ls: [2, 2], ms_combs: [0, 0, 1, -1, 2, -2], ctildes: [0.006039402727960325, 0.0063648972881598419, -0.0226264851218374, -0.039223597766296039, -0.016246143345358729, 0.059200633842820427, -0.012078805455920652, -0.012729794576319684, 0.045252970243674806, 0.078447195532592079, 0.032492286690717458, -0.11840126768564087, 0.012078805455920652, 0.012729794576319684, -0.045252970243674806, -0.078447195532592079, -0.032492286690717458, 0.11840126768564087]}
    - {mu0: 0, rank: 2, ndensity: 6, num_ms_combs: 1, mus: [0, 0], ns: [3, 6], ls: [0, 0], ms_combs: [0, 0], ctildes: [-0.02995986401093732, -0.0012662291615661632, -0.0056764731747663364, -0.006706402442200071, 0.11187123091603196, -0.016269966975444878]}
    - {mu0: 0, rank: 2, ndensity: 6, num_ms_combs: 2, mus: [0, 0], ns: [3, 6], ls: [1, 1], ms_combs: [0, 0, 1, -1], ctildes: [-0.016217444064077238, -0.038047492113457308, -0.032039083981655551, -0.027439718880376607, 0.037975579648204708, -0.00077351211310112186, 0.032434888128154468, 0.076094984226914603, 0.064078167963311089, 0.0548794377607532, -0.075951159296409401, 0.0015470242262022435]}
    - {mu0: 0, rank: 2, ndensity: 6, num_ms_combs: 1, mus: [0, 0], ns: [3, 7], ls: [0, 0], ms_combs: [0, 0], ctildes: [0.031543107046817336, -0.0087915368795460479, -0.042985531325842194, 0.15953262291782588, -0.089086606604351679, 0.040891407699782931]}
    - {mu0: 0, rank: 2, ndensity: 6, num_ms_combs: 2, mus: [0, 0], ns: [3, 7], ls: [1, 1], ms_combs: [0, 0, 1, -1], ctildes: [0.019578355808738884, -0.030386140735175579, -0.041664015643189514, -0.028594995638985755, -0.0073310470989565186, 0.059283876713122949, -0.03915671161747776, 0.060772281470351144, 0.083328031286379015, 0.057189991277971496, 0.014662094197913035, -0.11856775342624587]}
    - {mu0: 0, rank: 2, ndensity: 6, num_ms_combs: 1, mus: [0, 0], ns: [3, 8], ls: [0, 0], ms_combs: [0, 0], ctildes: [-0.098336696712296334, -0.088515376485186675, 0.02494740687982715, 0.048122624657122623, 0.073356377409006177, -0.018612163714270949]}
    - {mu0: 0, rank: 2, ndensity: 6, num_ms_combs: 1, mus: [0, 0], ns: [4, 4], ls: [0, 0], ms_combs: [0, 0], ctildes: [0.037022963333385728, -0.048162671454606849, 0.085895125574266984, -0.036325325076931918, 0.026080077534569878, -0.0081009950293439558]}
    - {mu0: 0, rank: 2, ndensity: 6, num_ms_combs: 2, mus: [0, 0], ns: [4, 4], ls: [1, 1], ms_combs: [0, 0, 1, -1], ctildes: [0.030133811661537821, 0.0024327761415964154, 0.040489080859279443, -0.016299794901283259, -0.062539316536449438, 0.010033968840121353, -0.060267623323075628, -0.0048655522831928298, -0.080978161718558872, 0.032599589802566512, 0.12507863307289885, -0.020067937680242703]}
    - {mu0: 0, rank: 2, ndensity: 6, num_ms_combs: 3, mus: [0, 0], ns: [4, 4], ls: [2, 2], ms_combs: [0, 0, 1, -1, 2, -2], ctildes: [-0.0028693889597547037, -0.023268941897130038, 0.018818169203685065, 0.010010785748043536, -0.0016375201273739674, 0.0099068074639491414, 0.0057387779195094083, 0.046537883794260083, -0.037636338407370129, -0.020021571496087076, 0.0032750402547479353, -0.019813614927898283, -0.0057387779195094083, -0.046537883794260083, 0.037636338407370129, 0.020021571496087076, -0.0032750402547479353, 0.019813614927898283]}
    - {mu0: 0, rank: 2, ndensity: 6, num_ms_combs: 1, mus: [0, 0], ns: [4, 5], ls: [0, 0], ms_combs: [0, 0], ctildes: [-0.037471488914463683, 0.084495633838750708, -0.034812796554727909, -0.011549394246892858, 0.03200549454704097, 0.023354830544193909]}
    - {mu0: 0, rank: 2, ndensity: 6, num_ms_combs: 2, mus: [0, 0], ns: [4, 5], ls: [1, 1], ms_combs: [0, 0, 1, -1], ctildes: [0.00020393780558750063, -0.03632691330525973, -0.0094176355830192862, -0.020522261078347481, 0.026263494750124336, 0.013664415070139491, -0.00040787561117500121, 0.072653826610519445, 0.018835271166038569, 0.041044522156694956, -0.052526989500248665, -0.027328830140278978]}
    - {mu0: 0, rank: 2, ndensity: 6, num_ms_combs: 1, mus: [0, 0], ns: [4, 6], ls: [0, 0], ms_combs: [0, 0], ctildes: [0.037724920142601231, 0.014712857214997139, 0.015109256607199813, -0.069905019419314998, -0.083326465449611198, -0.0039130155000771409]}
    - {mu0: 0, rank: 2, ndensity: 6, num_ms_combs: 2, mus: [0, 0], ns: [4, 6], ls: [1, 1], ms_combs: [0, 0, 1, -1], ctildes: [0.042334450928694915, 0.052106124874753176, -0.0038946719210300523, -0.04087974118839513, -0.068057354641233192, 0.034944165982755217, -0.084668901857389803, -0.10421224974950634, 0.0077893438420601037, 0.081759482376790246, 0.13611470928246636, -0.06988833196551042]}
    - {mu0: 0, rank: 2, ndensity: 6, num_ms_combs: 1, mus: [0, 0], ns: [4, 7], ls: [0, 0], ms_combs: [0, 0], ctildes: [-0.0044062045689346315, -0.04361118161668321, 0.028659699234866654, -0.12193290110719379, 0.098716963625840898, -0.0069160298407254768]}
    - {mu0: 0, rank: 2, ndensity: 6, num_ms_combs: 1, mus: [0, 0], ns: [4, 8], ls: [0, 0], ms_combs: [0, 0], ctildes: [0.037981054188309951, 0.11407301254689488, 0.0047409427274485187, -0.012769778109661794, -0.13709740590429906, 0.0034932820243219254]}
    - {mu0: 0, rank: 2, ndensity: 6, num_ms_combs: 1, mus: [0, 0], ns: [5, 5], ls: [0, 0], ms_combs: [0, 0], ctildes: [0.0032319637247236726, -0.072340169349836933, 0.046990830129204561, 0.0040304219883612585, -0.00093279267229461115, -0.033331043457205639]}
    - {mu0: 0, rank: 2, ndensity: 6, num_ms_combs: 2, mus: [0, 0], ns: [5, 5], ls: [1, 1], ms_combs: [0, 0, 1, -1], ctildes: [0.0032366394469302319, -0.01033104395598973, 0.023958471989388119, -0.0064669834786907996, -0.012885922046406421, -0.015512288528707939, -0.0064732788938604621, 0.020662087911979456, -0.04791694397877623, 0.012933966957381597, 0.025771844092812836, 0.031024577057415875]}
    - {mu0: 0, rank: 2, ndensity: 6, num_ms_combs: 1, mus: [0, 0], ns: [5, 6], ls: [0, 0], ms_combs: [0, 0], ctildes: [-0.025377315109630302, 0.053790002612238215, -0.045466430687927419, -0.018968297489813581, 0.058896843094318849, 0.034732353351801304]}
    - {mu0: 0, rank: 2, ndensity: 6, num_ms_combs: 1, mus: [0, 0], ns: [5, 7], ls: [0, 0], ms_combs: [0, 0], ctildes: [0.00163278585592594, 0.00055732488880358747, -0.011736861662485538, 0.066799073157490563, -0.028515703107262785, 0.0064372989285263037]}
    - {mu0: 0, rank: 2, ndensity: 6, num_ms_combs: 1, mus: [0, 0], ns: [6, 6], ls: [0, 0], ms_combs: [0, 0], ctildes: [0.013571318797674431, -0.0064384499678303477, 0.024077561581213838, -0.015165683326535983, -0.05923028852524536, -0.0042852269800160861]}
    - {mu0: 0, rank: 2, ndensity: 6, num_ms_combs: 1, mus: [0, 1], ns: [1, 1], ls: [0, 0], ms_combs: [0, 0], ctildes: [0.08179341541404421, -0.043140458276660874, 0.18098877367493213, -0.028882762207576303, 0.20956141158545524, 0.1427624680661698]}
    - {mu0: 0, rank: 2, ndensity: 6, num_ms_combs: 2, mus: [0, 1], ns: [1, 1], ls: [1, 1], ms_combs: [0, 0, 1, -1], ctildes: [0.040207792319773797, 0.2468258815626056, 0.089843639278843951, 0.14116812072885032, 0.32727929791300542, -0.20929950803257413, -0.08041558463954758, -0.49365176312521108, -0.17968727855768787, -0.28233624145770059, -0.65455859582601073, 0.41859901606514821]}
    - {mu0: 0, rank: 2, ndensity: 6, num_ms_combs: 3, mus: [0, 1], ns: [1, 1], ls: [2, 2], ms_combs: [0, 0, 1, -1, 2, -2], ctildes: [-0.0041843419879005733, 0.12081886571085791, -0.011550318476138469, 0.051963298796400388, 0.10233351672321721, -0.029765683952084253, 0.0083686839758011482, -0.24163773142171588, 0.023100636952276942, -0.10392659759280079, -0.20466703344643444, 0.059531367904168513, -0.0083686839758011482, 0.24163773142171588, -0.023100636952276942, 0.10392659759280079, 0.20466703344643444, -0.059531367904168513]}
    - {mu0: 0, rank: 2, ndensity: 6, num_ms_combs: 4, mus: [0, 1], ns: [1, 1], ls: [3, 3], ms_combs: [0, 0, 1, -1, 2, -2, 3, -3], ctildes: [0.013242789220769206, 0.065247839863684154, -0.06612585812192559, 0.069524233770261429, 0.13310636136883469, -0.061441268786561663, -0.026485578441538416, -0.13049567972736831, 0.13225171624385118, -0.13904846754052289, -0.26621272273766944, 0.12288253757312334, 0.026485578441538413, 0.13049567972736831, -0.13225171624385118, 0.13904846754052286, 0.26621272273766938, -0.12288253757312333, -0.026485578441538413, -0.13049567972736831, 0.13225171624385118, -0.13904846754052286, -0.26621272273766938, 0.12288253757312333]}
    - {mu0: 0, rank: 2, ndensity: 6, num_ms_combs: 1, mus: [0, 1], ns: [1, 2], ls: [0, 0], ms_combs: [0, 0], ctildes: [-0.027467727477844865, -0.054533574616713591, -0.13516416395845487, -0.23406541741014839, -0.26331913498409065, -0.13012819123493166]}
    - {mu0: 0, rank: 2, ndensity: 6, num_ms_combs: 2, mus: [0, 1], ns: [1, 2], ls: [1, 1], ms_combs: [0, 0, 1, -1], ctildes: [-0.0067372395066064763, -0.10452967259446051, 0.018528942602123063, 0.17808822280588929, -0.14398149805606186, 0.084706324741792516, 0.013474479013212949, 0.209059345188921, -0.037057885204246119, -0.35617644561177852, 0.28796299611212367, -0.169412649483585]}
    - {mu0: 0, rank: 2, ndensity: 6, num_ms_combs: 3, mus: [0, 1], ns: [1, 2], ls: [2, 2], ms_combs: [0, 0, 1, -1, 2, -2], ctildes: [0.012756443187517725, -0.021122473280786019, 0.010659134464101818, 0.045891867744597373, -0.052192007696355326, 0.0031280250491880338, -0.025512886375035453, 0.042244946561572044, -0.02131826892820364, -0.091783735489194759, 0.10438401539271067, -0.0062560500983760686, 0.025512886375035453, -0.042244946561572044, 0.02131826892820364, 0.091783735489194759, -0.10438401539271067, 0.0062560500983760686]}
    - {mu0: 0, rank: 2, ndensity: 6, num_ms_combs: 4, mus: [0, 1], ns: [1, 2], ls: [3, 3], ms_combs: [0, 0, 1, -1, 2, -2, 3, -3], ctildes: [0.0046191256558310257, 0.06349254962176519, -0.025446068638722851, 0.072817787531311143, 0.076872880751312572, -0.082414708361820507, -0.0092382513116620532, -0.12698509924353038, 0.050892137277445709, -0.14563557506262229, -0.15374576150262517, 0.16482941672364104, 0.0092382513116620515, 0.12698509924353038, -0.050892137277445702, 0.14563557506262229, 0.15374576150262514, -0.16482941672364101, -0.0092382513116620515, -0.12698509924353038, 0.050892137277445702, -0.14563557506262229, -0.15374576150262514, 0.16482941672364101]}
    - {mu0: 0, rank: 2, ndensity: 6, num_ms_combs: 1, mus: [0, 1], ns: [1, 3], ls: [0, 0], ms_combs: [0, 0], ctildes: [0.010486971099029022, -0.06008263396304319, 0.058730477567923448, 0.13171467510361123, 0.11064707256754991, 0.061037596736102172]}
    - {mu0: 0, rank: 2, ndensity: 6, num_ms_combs: 2, mus: [0, 1], ns: [1, 3], ls: [1, 1], ms_combs: [0, 0, 1, -1], ctildes: [0.057467396862674311, -0.071616500441201991, 0.0033681711524844588, -0.055543260495157648, -0.015641802935914963, 0.039474656433633376, -0.11493479372534859, 0.14323300088240395, -0.0067363423049689166, 0.11108652099031527, 0.031283605871829927, -0.078949312867266738]}
    - {mu0: 0, rank: 2, ndensity: 6, num_ms_combs: 3, mus: [0, 1], ns: [1, 3], ls: [2, 2], ms_combs: [0, 0, 1, -1, 2, -2], ctildes: [0.021939716594866519, -0.094570349888348781, -0.023668858837023132, -0.023094332971144972, -0.026409556493034843, 0.073662533793593263, -0.043879433189733044, 0.18914069977669756, 0.047337717674046272, 0.046188665942289951, 0.052819112986069693, -0.14732506758718655, 0.043879433189733044, -0.18914069977669756, -0.047337717674046272, -0.046188665942289951, -0.052819112986069693, 0.14732506758718655]}
    - {mu0: 0, rank: 2, ndensity: 6, num_ms_combs: 1, mus: [0, 1], ns: [1, 4], ls: [0, 0], ms_combs: [0, 0], ctildes: [0.02085016731025429, -0.021774118216317574, 0.049238822499404977, -0.0478185077433467, 0.026126634541027965, 0.006270339940831416]}
    - {mu0: 0, rank: 2, ndensity: 6, num_ms_combs: 2, mus: [0, 1], ns: [1, 4], ls: [1, 1], ms_combs: [0, 0, 1, -1], ctildes: [-0.016986097329656936, 0.074426517765917896, 0.0013330672934187863, -0.080408457224870875, 0.16946106392098884, -0.073206786325990703, 0.033972194659313865, -0.14885303553183576, -0.0026661345868375722, 0.16081691444974172, -0.33892212784197762, 0.14641357265198138]}
    - {mu0: 0, rank: 2, ndensity: 6, num_ms_combs: 3, mus: [0, 1], ns: [1, 4], ls: [2, 2], ms_combs: [0, 0, 1, -1, 2, -2], ctildes: [-0.0027113921992061073, 0.097405101120217302, -0.039615358715393303, 0.016210823444574939, 0.056758815187586506, -0.010515185553493213, 0.0054227843984122146, -0.19481020224043463, 0.079230717430786621, -0.032421646889149877, -0.11351763037517303, 0.021030371106986429, -0.0054227843984122146, 0.19481020224043463, -0.079230717430786621, 0.032421646889149877, 0.11351763037517303, -0.021030371106986429]}
    - {mu0: 0, rank: 2, ndensity: 6, num_ms_combs: 1, mus: [0, 1], ns: [1, 5], ls: [0, 0], ms_combs: [0, 0], ctildes: [-0.024585446361547011, 0.16692047269099897, -0.03940634294652251, -0.074908027216874604, -0.07048148391434228, -0.013553014964849768]}
    - {mu0: 0, rank: 2, ndensity: 6, num_ms_combs: 2, mus: [0, 1], ns: [1, 5], ls: [1, 1], ms_combs: [0, 0, 1, -1], ctildes: [-0.031766690133644512, 0.080093972138175568, 0.037067777020210815, 0.072838551548087882, -0.1395300289311264, -0.03824280437686408, 0.063533380267289011, -0.16018794427635111, -0.074135554040421617, -0.14567710309617574, 0.27906005786225274, 0.076485608753728146]}
    - {mu0: 0, rank: 2, ndensity: 6, num_ms_combs: 1, mus: [0, 1], ns: [1, 6], ls: [0, 0], ms_combs: [0, 0], ctildes: [-0.026907800459153842, -0.32551704511272944, 0.072530285357691959, 0.14343007833233448, 0.16168707558384041, 0.048287563504285355]}
    - {mu0: 0, rank: 2, ndensity: 6, num_ms_combs: 2, mus: [0, 1], ns: [1, 6], ls: [1, 1], ms_combs: [0, 0, 1, -1], ctildes: [0.012923213522315478, 0.0087478827312387868, -0.016382809328999437, -0.09856279652929531, 0.07519749577114275, 0.013761193236466624, -0.025846427044630953, -0.01749576546247757, 0.032765618657998867, 0.19712559305859059, -0.15039499154228547, -0.027522386472933244]}
    - {mu0: 0, rank: 2, ndensity: 6, num_ms_combs: 1, mus: [0, 1], ns: [1, 7], ls: [0, 0], ms_combs: [0, 0], ctildes: [-0.0038002402180496958, 0.076997952463154912, 0.0062107230058816082, -0.18352190672497876, -0.14997606168422387, -0.064013065775898909]}
    - {mu0: 0, rank: 2, ndensity: 6, num_ms_combs: 1, mus: [0, 1], ns: [1, 8], ls: [0, 0], ms_combs: [0, 0], ctildes: [-0.021702095886799614, -0.10494376015704464, 0.020426077011194907, 0.020724726389206968, 0.14649131689515132, 0.0071210456572174518]}
    - {mu0: 0, rank: 2, ndensity: 6, num_ms_combs: 1, mus: [0, 1], ns: [2, 1], ls: [0, 0], ms_combs: [0, 0], ctildes: [-0.023240399180443412, -0.13062299909520511, -0.0029175754604479978, -0.14801534318357762, -0.16913347535813419, -0.06169852638147124]}
    - {mu0: 0, rank: 2, ndensity: 6, num_ms_combs: 2, mus: [0, 1], ns: [2, 1], ls: [1, 1], ms_combs: [0, 0, 1, -1], ctildes: [-0.036758584711771035, -0.045974755409351462, -0.12642797515133355, 0.1172543362252154, -0.12655369810588724, 0.066189711774218479, 0.073517169423542056, 0.091949510818702909, 0.25285595030266705, -0.23450867245043078, 0.25310739621177442, -0.13237942354843693]}
    - {mu0: 0, rank: 2, ndensity: 6, num_ms_combs: 3, mus: [0, 1], ns: [2, 1], ls: [2, 2], ms_combs: [0, 0, 1, -1, 2, -2], ctildes: [-0.0060799496118006556, 0.016876059643283155, -0.034763296101348325, 0.09525012479246367, 0.087975232052781058, -0.058024139660356674, 0.012159899223601313, -0.033752119286566316, 0.069526592202696649, -0.19050024958492737, -0.17595046410556212, 0.11604827932071336, -0.012159899223601313, 0.033752119286566316, -0.069526592202696649, 0.19050024958492737, 0.17595046410556212, -0.11604827932071336]}
    - {mu0: 0, rank: 2, ndensity: 6, num_ms_combs: 4, mus: [0, 1], ns: [2, 1], ls: [3, 3], ms_combs: [0, 0, 1, -1, 2, -2, 3, -3], ctildes: [-0.015952083984049494, -0.024920514686228998, 0.072990674859457011, -0.067182950156942575, -0.10474796762834694, 0.0059784597222959316, 0.031904167968098994, 0.049841029372458004, -0.14598134971891402, 0.13436590031388518, 0.20949593525669391, -0.011956919444591865, -0.031904167968098987, -0.049841029372457997, 0.14598134971891402, -0.13436590031388515, -0.20949593525669388, 0.011956919444591863, 0.031904167968098987, 0.049841029372457997, -0.14598134971891402, 0.13436590031388515, 0.20949593525669388, -0.011956919444591863]}
    - {mu0: 0, rank: 2, ndensity: 6, num_ms_combs: 1, mus: [0, 1], ns: [2, 2], ls: [0, 0], ms_combs: [0, 0], ctildes: [0.10646500966502083, 0.3475403162707833, 0.013850150319535161, 0.32563087751656644, 0.23414047399873608, 0.019729394657072099]}
    - {mu0: 0, rank: 2, ndensity: 6, num_ms_combs: 2, mus: [0, 1], ns: [2, 2], ls: [1, 1], ms_combs: [0, 0, 1, -1], ctildes: [0.010899680879638902, -0.042562280904470944, 0.015541105643240712, -0.11663235458938294, 0.10511339931649705, -0.0564073100584008, -0.0217993617592778, 0.085124561808941859, -0.031082211286481417, 0.23326470917876585, -0.21022679863299407, 0.11281462011680159]}
    - {mu0: 0, rank: 2, ndensity: 6, num_ms_combs: 3, mus: [0, 1], ns: [2, 2], ls: [2, 2], ms_combs: [0, 0, 1, -1, 2, -2], ctildes: [0.010686938714598162, -0.038866335930819798, -0.0058320952373167936, -0.0056828041586001517, -0.017978733996383889, -0.012800187984927826, -0.021373877429196327, 0.07773267186163961, 0.011664190474633589, 0.011365608317200305, 0.035957467992767778, 0.025600375969855656, 0.021373877429196327, -0.07773267186163961, -0.011664190474633589, -0.011365608317200305, -0.035957467992767778, -0.025600375969855656]}
    - {mu0: 0, rank: 2, ndensity: 6, num_ms_combs: 1, mus: [0, 1], ns: [2, 3], ls: [0, 0], ms_combs: [0, 0], ctildes: [-0.032129447774788433, 0.05903157278043418, 0.06447204112192427, -0.017252011433567173, -0.020038243969755586, -0.023659757956902446]}
    - {mu0: 0, rank: 2, ndensity: 6, num_ms_combs: 2, mus: [0, 1], ns: [2, 3], ls: [1, 1], ms_combs: [0, 0, 1, -1], ctildes: [-0.011599995235782137, 0.046691614787484355, -0.020442990103875059, 0.056068909431979466, 0.050013661737446972, -0.04795868392560846, 0.023199990471564267, -0.093383229574968682, 0.040885980207750104, -0.1121378188639589, -0.10002732347489393, 0.095917367851216906]}
    - {mu0: 0, rank: 2, ndensity: 6, num_ms_combs: 3, mus: [0, 1], ns: [2, 3], ls: [2, 2], ms_combs: [0, 0, 1, -1, 2, -2], ctildes: [-0.025217285158579929, 0.088446063430234728, 0.023999285579739328, -0.0075423921817200767, 0.084644833113198772, -0.07224494751600781, 0.050434570317159866, -0.17689212686046946, -0.047998571159478663, 0.015084784363440155, -0.16928966622639757, 0.14448989503201562, -0.050434570317159866, 0.17689212686046946, 0.047998571159478663, -0.015084784363440155, 0.16928966622639757, -0.14448989503201562]}
    - {mu0: 0, rank: 2, ndensity: 6, num_ms_combs: 1, mus: [0, 1], ns: [2, 4], ls: [0, 0], ms_combs: [0, 0], ctildes: [-0.019712760132821753, -0.10731953636734826, -0.021044484702031966, -0.032254707713998652, 0.017521516233209612, 0.0058387864778316383]}
    - {mu0: 0, rank: 2, ndensity: 6, num_ms_combs: 2, mus: [0, 1], ns: [2, 4], ls: [1, 1], ms_combs: [0, 0, 1, -1], ctildes: [-0.026053292048592601, 0.14058040107828898, -0.0024764441707540107, -0.003632372439930572, -0.010450048589953255, 0.00075070119329611002, 0.052106584097185188, -0.2811608021565779, 0.0049528883415080206, 0.0072647448798611423, 0.020900097179906506, -0.0015014023865922196]}
    - {mu0: 0, rank: 2, ndensity: 6, num_ms_combs: 1, mus: [0, 1], ns: [2, 5], ls: [0, 0], ms_combs: [0, 0], ctildes: [0.033272842882764331, 0.088229570337263308, 0.049062070752795818, -0.0067289928223767713, -0.050715723711397792, -0.06310565970251171]}
    - {mu0: 0, rank: 2, ndensity: 6, num_ms_combs: 2, mus: [0, 1], ns: [2, 5], ls: [1, 1], ms_combs: [0, 0, 1, -1], ctildes: [0.027468633246087615, -0.047927248713609226, -0.01947315583112947, -0.029790606806595385, -0.012395184891851374, 0.023579360560587615, -0.054937266492175223, 0.095854497427218438, 0.038946311662258933, 0.059581213613190756, 0.024790369783702745, -0.047158721121175223]}
    - {mu0: 0, rank: 2, ndensity: 6, num_ms_combs: 1, mus: [0, 1], ns: [2, 6], ls: [0, 0], ms_combs: [0, 0], ctildes: [-0.054632193389082581, -0.070037251370018358, -0.011181958600895381, 0.0060653245643142121, -0.038267676645222896, 0.042439743323744526]}
    - {mu0: 0, rank: 2, ndensity: 6, num_ms_combs: 1, mus: [0, 1], ns: [2, 7], ls: [0, 0], ms_combs: [0, 0], ctildes: [0.02028009538556122, 0.14486053397511667, -0.15192040625600575, 0.0024251770979440024, 0.083977488127710956, -0.020076891435696156]}
